%YAML:1.0
---
opencv_ml_svm:
   format: 3
   svmType: C_SVC
   kernel:
      type: LINEAR
   C: 6.2500000000000000e+01
   term_criteria: { iterations:100 }
   var_count: 32
   class_count: 30
   class_labels: !!opencv-matrix
      rows: 30
      cols: 1
      dt: i
      data: [ 0, 1, 2, 3, 4, 5, 6, 7, 8, 9, 10, 11, 12, 13, 14, 15, 16,
          17, 18, 19, 20, 21, 22, 23, 24, 25, 26, 27, 28, 29 ]
   sv_total: 435
   support_vectors:
      - [ 1.36825303e-02, 4.64476883e-01, 5.14294326e-01, 1.99289054e-01,
          -6.61098510e-02, 2.57147159e-02, 0., 2.83667862e-01,
          -1.88235581e-01, -4.25828069e-01, -4.25828069e-01,
          -1.96813539e-01, -1.14065871e-01, 2.89770421e-02,
          1.61196776e-02, -1.29341200e-01, 1.19174290e+00,
          2.43272737e-01, -1.23670506e+00, -1.98310390e-01,
          -3.54728669e-01, 9.33405310e-02, 1.04585916e-01,
          1.56802207e-01, -5.15771985e-01, -3.40604872e-01,
          4.37764198e-01, 9.97251272e-01, -6.99152470e-01,
          -7.35862911e-01, -8.25941384e-01, 8.25941503e-01 ]
      - [ -1.40506402e-01, 9.74323392e-01, 1.18885159e+00,
          -5.52525580e-01, -1.26942769e-01, 2.78204586e-02,
          -7.76278973e-01, -3.58603597e-01, -2.22632233e-02,
          -1.10245451e-01, -5.52745700e-01, -3.92520204e-02,
          -1.86094955e-01, -4.95881326e-02, 9.60762262e-01,
          -2.36711100e-01, 1.47014320e+00, -1.23400497e+00,
          -7.24506319e-01, 4.88368124e-01, -4.75807488e-01,
          8.42310131e-01, 8.20589125e-01, -1.18709242e+00,
          -9.02142704e-01, -1.62514496e+00, 7.34694660e-01,
          -4.98556435e-01, -3.68191779e-01, 1.32053509e-01,
          -1.41144979e+00, 1.41144955e+00 ]
      - [ -3.44161868e-01, 1.86582744e+00, 1.83897018e+00,
          -1.30508497e-01, -1.10579334e-01, -3.17390651e-01,
          -4.18079019e-01, -4.16615129e-01, -1.31992459e-01,
          -6.89514220e-01, -6.89514220e-01, -1.52939275e-01,
          1.05940275e-01, 4.40064445e-02, -3.56261075e-01,
          -9.71886367e-02, 3.23012757e+00, -1.26266420e+00,
          -1.66396022e+00, -3.03502768e-01, -4.80793506e-01,
          9.02928650e-01, 3.75115395e-01, -7.97251523e-01,
          -1.44825530e+00, -1.13216150e+00, 1.09369552e+00,
          8.73767436e-01, -6.71559632e-01, -1.29590309e+00,
          -2.11449814e+00, 2.11449575e+00 ]
      - [ 2.01318368e-01, 4.42022830e-01, -1.02826664e-02,
          -7.40934089e-02, -5.03824465e-02, -5.56718290e-01,
          -1.95159331e-01, 2.39752792e-02, 1.90507010e-01,
          2.50061974e-02, -4.75619912e-01, -2.98461884e-01,
          2.44458020e-01, 4.28806037e-01, 2.78663099e-01,
          -1.74038887e-01, 5.58965266e-01, -7.78284848e-01,
          -5.58568656e-01, 7.77888238e-01, 5.85900962e-01,
          3.39116782e-01, -4.02398854e-01, -5.22618890e-01,
          -1.00505877e+00, 2.11507431e-04, 3.62404734e-02,
          -2.55560070e-01, 8.88777256e-01, -6.69457555e-01,
          -1.20249128e+00, 1.20249164e+00 ]
      - [ -1.15682745e+00, 2.97946423e-01, 1.84388292e+00,
          -2.85223126e-01, 3.83673877e-01, -1.78533125e+00,
          -7.93041289e-02, -1.30567849e-01, 5.01641870e-01,
          -1.07554686e+00, 6.29492044e-01, -1.30567849e-01,
          -1.27355963e-01, 1.72937369e+00, -3.71691704e-01,
          -2.43594617e-01, 6.99778974e-01, -1.61152911e+00,
          -7.49808103e-02, 9.86731052e-01, -3.98867279e-01,
          -8.33558023e-01, 2.02237892e+00, -7.89952755e-01,
          -2.55626082e+00, -1.56743014e+00, -2.26053905e+00,
          1.34878802e+00, 1.02811289e+00, -1.16361924e-01,
          -2.31069016e+00, 2.31068945e+00 ]
      - [ -1.09253101e-01, 4.70849127e-01, 8.47684264e-01,
          -5.66931888e-02, 4.76998240e-01, -3.80708480e+00,
          -4.87959795e-02, 8.30309018e-02, 8.12893331e-01,
          -2.02968669e+00, 1.77974296e+00, 2.79551625e-01,
          -1.55868858e-01, 3.36382914e+00, -7.88344681e-01,
          -1.11885190e+00, 1.15258849e+00, -3.29585123e+00,
          8.42501521e-01, 1.30076218e+00, 1.02476978e+00,
          -2.00209284e+00, 1.79028583e+00, -8.12963247e-01,
          -3.25544691e+00, -2.29104495e+00, -2.96849132e+00,
          8.25226545e-01, 1.99116695e+00, 1.52098805e-01,
          -4.10582447e+00, 4.10582590e+00 ]
      - [ -3.40469480e-01, 4.08438027e-01, 5.46135366e-01,
          4.26034033e-02, -1.41090766e-01, 9.19845770e-04,
          -4.34444606e-01, -1.39298320e-01, -1.30244106e-01,
          -4.12803560e-01, -2.08144441e-01, 3.20854485e-01,
          -3.60755563e-01, 2.81684309e-01, 4.09601480e-01,
          1.57013908e-01, 6.56707406e-01, -7.13913858e-01,
          -4.30337578e-01, 4.87544060e-01, -9.72559988e-01,
          2.78238535e-01, 3.13147753e-01, 3.81173462e-01,
          -3.90680104e-01, -1.16540027e+00, -7.22023472e-02,
          1.49958571e-02, -6.22118950e-01, 6.79325521e-01,
          -1.05447280e+00, 1.05447257e+00 ]
      - [ -3.53647381e-01, 2.17283416e+00, 7.38069475e-01,
          -2.48825297e-01, 3.59842300e-01, -2.88732576e+00,
          -2.20229492e-01, 3.05777192e-01, 5.76095104e-01,
          -2.11249375e+00, 1.15672803e+00, 2.22955674e-01,
          3.60283494e-01, 1.46302712e+00, -5.56066692e-01,
          -9.77024019e-01, 2.30843163e+00, -2.44193625e+00,
          -1.56714916e-01, 2.90218800e-01, 9.42573428e-01,
          -1.36395860e+00, 1.11850071e+00, -6.97115898e-01,
          -3.06126857e+00, -2.22126508e+00, -7.08297014e-01,
          5.74791968e-01, 2.86912441e-01, -1.53406218e-01,
          -4.06332111e+00, 4.06332159e+00 ]
      - [ -3.89503956e-01, 1.85895562e-01, 4.35854721e+00,
          -6.87220097e-01, 3.90600353e-01, -7.45851453e-03,
          -2.35790443e+00, 2.96678424e-01, 6.10868514e-01,
          8.97524953e-01, -1.46037960e+00, 8.37808773e-02,
          -1.36971533e-01, -5.56813359e-01, -9.32869613e-01,
          -2.94774532e-01, 3.46771932e+00, -1.67808414e+00,
          1.31794497e-01, -1.92142975e+00, 4.74994212e-01,
          5.19147992e-01, -3.92607331e-01, -6.01535618e-01,
          -2.15211630e+00, -2.28457093e+00, 1.79532468e-01,
          1.61010158e+00, 8.14608574e-01, -2.60424209e+00,
          -2.92821765e+00, 2.92821527e+00 ]
      - [ 1.81693897e-01, 4.92879838e-01, 2.93578655e-01,
          -2.36664981e-01, -6.05921894e-02, -4.45038468e-01,
          -4.44459796e-01, 2.85084993e-01, -1.54043049e-01,
          -2.74876088e-01, -2.74876088e-01, 2.85084993e-01,
          2.20628306e-01, 3.35984945e-01, 9.74600092e-02,
          -3.01844984e-01, 7.31487453e-01, -6.65005505e-01,
          -4.18710262e-01, 3.52228254e-01, 1.87687010e-01,
          1.08950175e-01, -3.28297198e-01, 3.16600092e-02,
          -8.40065479e-01, -7.35372543e-01, 1.68943062e-01,
          -1.02461107e-01, 1.27694115e-01, -1.94176018e-01,
          -1.43925047e+00, 1.43925047e+00 ]
      - [ -1.77753699e+00, 1.14882064e+00, 1.03723121e+00,
          -1.95270789e+00, 4.84467447e-01, -1.19384956e+00,
          -1.14434803e+00, 8.44242632e-01, 1.06042433e+00,
          -8.96656439e-02, -4.05347884e-01, 8.50148499e-01,
          2.23900810e-01, 1.02926290e+00, 9.27714288e-01,
          -1.04275703e+00, -1.54419219e+00, -1.00948739e+00,
          1.41555917e+00, 1.13812089e+00, -8.74387193e-03,
          8.94567907e-01, 4.15248930e-01, -1.30107343e+00,
          -4.41949081e+00, -2.96282077e+00, -1.33809900e+00,
          -1.21558166e+00, 2.22392297e+00, 3.29758078e-01,
          -2.83321095e+00, 2.83321214e+00 ]
      - [ -5.68110161e-02, -2.39012852e-01, -1.92632794e-01,
          1.95473731e-01, -7.55885839e-01, -6.05902791e-01,
          -5.58922350e-01, -8.27482164e-01, -6.10063076e-01,
          4.53002423e-01, 3.24020326e-01, -8.55698287e-01,
          1.51509732e-01, 2.02606034e+00, 1.45839274e+00, 9.39518213e-02,
          -2.92982429e-01, -2.74819374e+00, -6.88738585e-01,
          3.72991443e+00, -1.27125025e+00, 1.63414681e+00,
          1.03085756e+00, -1.39375520e+00, -2.44741350e-01,
          2.41063550e-01, -1.65761304e+00, -1.38356340e+00,
          2.02050948e+00, 1.02066708e+00, -3.87802452e-01,
          3.87802631e-01 ]
      - [ -4.20727444e+00, 2.18988204e+00, 1.23717034e+00,
          -6.04976511e+00, 1.67706418e+00, 0., 0., 1.87642634e+00,
          7.19874144e-01, 0., 0., 1.16332805e+00, 4.52612758e-01,
          3.40040773e-01, 5.39402962e-01, 6.12381846e-02,
          -6.82998466e+00, 3.55349112e+00, 1.88320315e+00,
          1.39329767e+00, -1.35771930e+00, 2.52992296e+00,
          1.77657330e+00, -2.94877219e+00, -4.14603567e+00,
          -5.59715366e+00, -3.40327621e-01, -2.93616962e+00,
          1.51252747e+00, 1.76396871e+00, 0., -7.45058060e-06 ]
      - [ -1.00498402e+00, 1.52003020e-01, 1.30246922e-01,
          -8.88228118e-01, 1.22376285e-01, -4.56965268e-01,
          -4.37649965e-01, 5.86747304e-02, 2.35355362e-01,
          -9.65764895e-02, 7.17504323e-02, 6.10418171e-02,
          -1.56026900e-01, 1.27315414e+00, 1.25388062e+00,
          -3.18052590e-01, -1.61096191e+00, -7.13564157e-01,
          2.71571010e-01, 2.05295515e+00, -8.03279102e-01,
          8.71615410e-01, 1.01822782e+00, -1.08656430e+00,
          -1.70825136e+00, -1.57848144e+00, -1.18756986e+00,
          -1.13695621e+00, 1.25590611e+00, 1.06862032e+00,
          -9.19441283e-01, 9.19441402e-01 ]
      - [ -6.72489703e-01, -1.15846358e-01, -1.52852282e-01,
          -6.37161493e-01, -6.11650683e-02, -3.76137048e-01,
          -2.39424735e-01, 6.26655161e-01, -2.27160212e-02,
          -2.92770177e-01, -7.65321180e-02, 6.40550017e-01,
          -1.60673440e-01, 5.81153452e-01, 6.45949185e-01,
          3.13460678e-01, -1.57834995e+00, -5.00717275e-02,
          2.48531759e-01, 1.37988973e+00, -9.17044103e-01,
          -2.03600183e-01, 1.77139878e-01, 9.43504393e-01,
          -8.11698198e-01, -1.33002973e+00, -1.22563839e+00,
          -4.02783275e-01, 1.04993872e-01, 1.52342784e+00,
          -9.84864175e-01, 9.84863937e-01 ]
      - [ 6.17225766e-01, 3.54853094e-01, 4.66183037e-01, 4.74025637e-01,
          -5.90324067e-02, -2.47923687e-01, 0., -3.90865356e-01,
          -1.01029165e-01, 3.86109918e-01, -1.28235424e+00,
          -3.30705583e-01, 3.39591861e-01, 2.99341321e+00,
          -1.46004772e+00, -1.75944388e+00, 1.91228783e+00,
          -6.97821558e-01, -1.32797921e+00, 1.13513760e-01,
          7.96755433e-01, 3.48645186e+00, -2.27621841e+00,
          -2.00698948e+00, -2.67249608e+00, 1.19972765e+00,
          6.65122151e-01, 5.49343765e-01, 3.61808538e+00,
          -4.83255148e+00, -1.14416802e+00, 1.14416575e+00 ]
      - [ -4.83585835e-01, 9.41611305e-02, 1.32867828e-01,
          -5.90388775e-01, 8.79595339e-01, -7.47671545e-01, 0.,
          8.93759549e-01, 8.77772331e-01, -6.91574574e-01,
          7.01212436e-02, 9.09606814e-01, -5.00505865e-01,
          -1.49036422e-01, -4.81843762e-02, -6.46936715e-01,
          -8.46945763e-01, 1.02568340e+00, 1.16592586e+00,
          -1.34466338e+00, 7.73275971e-01, -1.49412155e+00,
          1.54804662e-01, 5.66040993e-01, -1.80807292e+00,
          -1.78246927e+00, -2.57500887e-01, 4.36238438e-01,
          -4.63344634e-01, 2.84606963e-01, -1.36912489e+00,
          1.36912608e+00 ]
      - [ -5.02451479e-01, 2.78034480e-03, 1.05829932e-01,
          -3.87924135e-01, 5.16745090e-01, -7.66473711e-01,
          -8.00942361e-01, 4.13588524e-01, -7.80981332e-02,
          8.08071494e-02, 9.22491774e-02, -1.24187082e-01,
          1.15632266e-01, 7.11616099e-01, 6.88660741e-01,
          -6.78323582e-02, -7.81765103e-01, -6.37082398e-01,
          -2.92288940e-02, 1.44807673e+00, 5.18277362e-02,
          2.87298448e-02, 8.57973173e-02, -1.66355014e-01,
          -1.24450815e+00, -9.92427170e-01, -7.49399722e-01,
          -6.69448137e-01, 8.29957426e-01, 5.88890553e-01,
          -1.39435983e+00, 1.39435995e+00 ]
      - [ -5.19719243e-01, -2.95986950e-01, -2.80557126e-01,
          -4.71604794e-01, 3.39455903e-01, 0., 0., -1.65248320e-01,
          3.31741005e-01, 0., 0., -1.57533437e-01, 3.00881356e-01,
          5.16898751e-01, 5.32328606e-01, -1.30655676e-01,
          -1.56786788e+00, 1.74207613e-01, 1.74207613e-01,
          1.21945298e+00, 4.52359051e-01, 2.20911801e-01, 2.51771450e-01,
          -9.25042212e-01, -6.50374949e-01, -1.70723453e-01,
          -4.76250321e-01, -9.17410374e-01, 1.14952111e+00,
          2.44139493e-01, 0., 8.64967092e-07 ]
      - [ -7.31970906e-01, 2.19226792e-01, 2.95462459e-01,
          -7.12860703e-01, 5.16348898e-01, -1.02113378e+00, 0.,
          1.30531120e+00, 7.55557358e-01, -8.51310134e-01,
          3.02414298e-01, 1.33639348e+00, -6.99256063e-01,
          1.73934296e-01, -4.93219942e-02, -8.38795245e-01,
          -9.30142283e-01, 8.00526440e-01, 1.54305506e+00,
          -1.41343927e+00, -1.59320742e-01, -1.47928309e+00,
          5.48554659e-01, 1.09004855e+00, -2.28948545e+00,
          -2.26342702e+00, -1.01752877e+00, 8.87912929e-01,
          -6.21074677e-01, 7.50690699e-01, -1.57002962e+00,
          1.57003033e+00 ]
      - [ -5.73136151e-01, 2.81047761e-01, 4.58442241e-01,
          -4.03835475e-01, 4.37004894e-01, -9.01721716e-01,
          -1.19954690e-01, 9.41456258e-01, 1.05474865e+00,
          1.69624254e-01, -7.72876859e-01, 4.33037460e-01,
          -3.66071373e-01, 7.82210082e-02, -2.50733607e-02,
          -6.90912724e-01, -2.37481579e-01, 3.56784880e-01,
          8.84533405e-01, -1.00383663e+00, 5.52545905e-01,
          -3.72828722e-01, -4.59462821e-01, 2.79745549e-01,
          -2.93864751e+00, -7.20237374e-01, -7.56805301e-01,
          8.76108527e-01, 9.36522484e-01, -1.05582535e+00,
          -1.62492907e+00, 1.62492895e+00 ]
      - [ -5.73664248e-01, 6.34050593e-02, 9.97067243e-02,
          -7.89683521e-01, -9.29659009e-02, -3.78183037e-01,
          -6.08561575e-01, 5.82616746e-01, -6.54412583e-02,
          -2.00466514e-01, 2.38734204e-03, 8.53088558e-01,
          -8.15909207e-02, -2.94626087e-01, 1.06650996e+00,
          4.17468905e-01, -1.20023549e+00, -4.97093767e-01,
          5.89568019e-01, 1.10776174e+00, -8.13662410e-01,
          -8.09870780e-01, 5.60042322e-01, 1.06349063e+00,
          -5.31991005e-01, -1.68030250e+00, -9.81408298e-01,
          -7.15921640e-01, -6.42124891e-01, 2.33945489e+00,
          -1.18482387e+00, 1.18482518e+00 ]
      - [ -7.65366733e-01, 9.49588120e-01, 1.78382361e+00,
          -5.07751942e-01, 1.64218083e-01, -1.57264531e+00,
          -2.14035973e-01, -1.03351632e-02, 2.42707342e-01,
          -3.10814142e-01, -1.88507885e-01, 5.08180037e-02,
          -2.80713767e-01, 1.55292773e+00, -3.82064223e-01,
          -5.11847913e-01, 1.46029377e+00, -1.63279843e+00,
          -2.05796853e-01, 3.78301173e-01, -6.39154971e-01,
          6.19056404e-01, 9.99215186e-01, -9.79116917e-01,
          -3.03836799e+00, -1.31331587e+00, -1.22420621e+00,
          1.05170047e+00, 1.20410693e+00, -1.03160203e+00,
          -2.28600359e+00, 2.28600478e+00 ]
      - [ -1.50769949e-01, 4.56167877e-01, 4.67864513e-01,
          1.81297496e-01, -3.05275470e-01, -2.91129291e-01,
          -2.94864863e-01, 9.49201267e-03, -2.03251600e-01,
          -1.77898735e-01, -2.17214063e-01, -1.67426914e-01,
          -1.54995427e-01, 3.62594992e-01, 3.50898385e-01,
          1.34511054e-01, 9.54560041e-01, -8.81777585e-01,
          -7.65791237e-01, 6.93008959e-01, -8.14292431e-01,
          3.49734843e-01, 3.06683928e-01, 1.57873645e-01,
          -5.24602234e-01, -4.46461499e-01, -2.91006804e-01,
          3.63789171e-01, -1.73550740e-01, 1.00768492e-01,
          -9.81106937e-01, 9.81106997e-01 ]
      - [ -2.77485466e+00, -3.11311245e-01, 3.44102621e-01,
          4.55808640e-01, 4.86015272e+00, 0., 0., -4.98866916e-01,
          3.26335812e+00, -1.12235926e-01, -2.99295813e-01,
          -2.45924965e-01, -3.50028372e+00, -3.97177726e-01,
          -8.85093272e-01, 1.01622373e-01, -2.28625631e+00,
          4.36128616e+00, 2.60590196e+00, -4.68093300e+00,
          1.84837282e+00, -8.20725381e-01, -8.40286672e-01,
          -1.87361151e-01, -2.97252774e+00, -3.15671110e+00,
          1.77398646e+00, 3.01044047e-01, -7.46339381e-01,
          -1.32869053e+00, -4.11531746e-01, 4.11533386e-01 ]
      - [ -4.19300556e-01, 2.96812385e-01, 6.01003647e-01,
          2.78780460e-01, 4.18285966e-01, -2.99579442e-01,
          -6.21756494e-01, -2.87911743e-01, 4.34519321e-01,
          -2.44515136e-01, -4.91243899e-01, -2.28696838e-01,
          -3.25866431e-01, 2.22009778e-01, 4.60621864e-01,
          2.06837118e-01, 7.57296026e-01, -7.90961742e-01,
          -5.29936612e-01, 5.63602209e-01, 1.07638225e-01,
          -2.52725128e-02, -5.13750538e-02, -3.09910029e-02,
          -1.00328684e+00, -9.13357675e-01, -3.78175755e-03,
          -2.98842117e-02, 8.61474723e-02, -5.24816737e-02,
          -1.65709496e+00, 1.65709496e+00 ]
      - [ -1.40149638e-01, 3.55211467e-01, 3.70399326e-01,
          -7.97766373e-02, 1.17286809e-01, -3.39753389e-01,
          -3.75912309e-01, 5.32925203e-02, 5.51301949e-02,
          -2.35600546e-01, -2.64516860e-01, 8.22088569e-02,
          3.72939161e-03, 2.91541487e-01, 2.76353657e-01,
          -1.69444293e-01, 5.05684614e-01, -5.45086384e-01,
          -3.62778455e-01, 4.02180225e-01, 3.59967649e-02,
          7.13990107e-02, 6.32370962e-03, -1.13719575e-01,
          -9.13864195e-01, -6.87560141e-01, -7.40473438e-03,
          -3.19971368e-02, 1.14800550e-01, -7.53985941e-02,
          -1.21578312e+00, 1.21578324e+00 ]
      - [ -1.79411665e-01, 3.22940975e-01, 3.53027850e-01,
          1.36798292e-01, 5.93788885e-02, -3.96941036e-01,
          -2.12611511e-01, 1.60534941e-02, 3.98232602e-02,
          -3.42281342e-01, -1.77507415e-01, -7.96217024e-02,
          -1.52934581e-01, 2.47020140e-01, 2.64770865e-01,
          1.01495504e-01, 6.33355498e-01, -5.34120142e-01,
          -5.59587240e-01, 4.60351914e-01, -2.33144104e-01,
          -1.69261277e-01, 2.27679759e-01, 1.74725592e-01,
          -6.52364552e-01, -5.71029186e-01, -1.94032863e-01,
          2.93268114e-01, -2.08372608e-01, 1.09137319e-01,
          -1.12934136e+00, 1.12934136e+00 ]
      - [ -6.33795038e-02, 6.74919665e-01, 5.20471573e-01,
          -3.27825129e-01, -1.14563731e-02, -5.76692969e-02,
          -5.91350555e-01, -7.03522265e-02, -1.73367020e-02,
          -4.60477680e-01, 9.96093750e-02, -5.47204763e-02,
          -4.24460143e-01, 4.34588492e-01, 5.19168973e-01,
          -1.69729978e-01, 8.04186702e-01, -7.30828404e-01,
          -4.32925522e-01, 3.59567255e-01, -5.16632736e-01,
          5.91361105e-01, 5.47899246e-01, -6.22627795e-01,
          -1.91169396e-01, -1.80411339e+00, 5.42414427e-01,
          -4.69056308e-01, -4.67686087e-01, 3.94327939e-01,
          -1.00988817e+00, 1.00988829e+00 ]
      - [ -7.93584436e-02, -1.47881836e-01, -2.32789125e-02,
          -6.51809514e-01, 1.79270264e-02, 6.30073771e-02,
          -4.51180756e-01, -6.22341514e-01, 2.59663284e-01,
          5.88326037e-01, 3.88403207e-01, 3.97284716e-01, 5.41916043e-02,
          -2.53917426e-01, 4.09531534e-01, 5.14336117e-02,
          -9.02328789e-01, -9.92587805e-01, 1.63367736e+00,
          2.61239320e-01, 2.52423465e-01, 2.49534175e-01, 3.23475003e-01,
          -8.25432718e-01, 4.23485696e-01, -4.60472673e-01,
          -1.46305799e-01, -1.74861073e+00, 6.48263514e-01,
          1.24665296e+00, 5.88556051e-01, -5.88556051e-01 ]
      - [ -3.33998591e-01, -7.84572959e-02, -2.40710214e-01,
          -8.52283657e-01, 9.10332054e-02, -2.03056231e-01,
          -7.98531324e-02, -1.06125176e+00, 5.73888361e-01,
          7.92421043e-01, 9.16736126e-01, 6.81560636e-01, 3.36759031e-01,
          -2.55076647e-01, -5.45332432e-01, 2.57621378e-01,
          -1.50544965e+00, -1.25312793e+00, 2.96460629e+00,
          -2.06028834e-01, 6.67681515e-01, 2.55830735e-01,
          5.08402996e-02, -9.74353492e-01, 6.37302697e-01,
          1.97043255e-01, -5.24478614e-01, -2.23409867e+00,
          1.44799137e+00, 1.31058526e+00, 1.42624807e+00,
          -1.42624819e+00 ]
      - [ 2.27662012e-01, -9.09812003e-03, -5.80321968e-01,
          -2.45617524e-01, 2.96090931e-01, -6.25629544e-01,
          -3.88867915e-01, -2.25786835e-01, 2.52684027e-01,
          6.79038703e-01, 8.81160721e-02, 6.49742223e-03, 2.41912588e-01,
          2.45035440e-01, 3.55328433e-02, 2.75194226e-03,
          -6.07375562e-01, -9.44193363e-01, 1.02633619e+00,
          5.25232792e-01, 1.01834953e+00, 2.89346546e-01,
          -8.45540881e-01, -4.62154984e-01, -3.07099521e-01,
          2.86465913e-01, -1.10974722e-01, -1.44059420e+00,
          1.41867077e+00, 1.32898346e-01, -2.47342661e-01,
          2.47342914e-01 ]
      - [ -2.38368571e-01, -5.94765544e-01, -1.84159651e-01,
          -3.68319303e-01, 4.94815372e-02, -3.06928426e-01,
          7.84431845e-02, -3.04538786e-01, 2.37745211e-01,
          3.99060190e-01, 5.91064215e-01, 2.73213476e-01, 8.42614844e-02,
          2.90928096e-01, -1.41847089e-01, 1.34730086e-01,
          -1.38561320e+00, -4.83542413e-01, 1.50108337e+00,
          3.68072540e-01, 1.33119524e-01, -2.11705714e-01,
          3.43500555e-01, -2.64914542e-01, 1.80497274e-01,
          1.93445608e-01, -1.09058118e+00, -7.78574586e-01,
          1.01199508e+00, 8.57160628e-01, 7.61639237e-01,
          -7.61639297e-01 ]
      - [ 4.02471283e-03, -4.47624087e-01, -4.74703461e-01,
          -2.63470262e-01, 8.19803178e-02, -2.97433823e-01,
          6.01175427e-02, -2.83658683e-01, 2.29618296e-01,
          3.18442106e-01, 6.61478579e-01, 2.42756039e-01, 1.35216475e-01,
          1.32252246e-01, -1.39284149e-01, 4.02880646e-02,
          -1.18177307e+00, -4.38994676e-01, 1.45229518e+00,
          1.68472543e-01, 4.50839669e-01, -2.94363588e-01,
          1.07608512e-01, -2.64084727e-01, 4.08357561e-01,
          2.50305921e-01, -6.59052789e-01, -9.61714923e-01,
          8.15529048e-01, 8.05238485e-01, 7.42604494e-01,
          -7.42604494e-01 ]
      - [ -4.51493055e-01, -1.07969947e-01, 0., -2.17687607e-01,
          -6.48596734e-02, 5.30140214e-02, -4.74019140e-01,
          -4.12266552e-01, 1.21951662e-01, 1.63508430e-01,
          4.27025050e-01, 7.86471784e-01, -3.48183662e-01,
          7.88413659e-02, 2.62157261e-01, 1.83510080e-01,
          -7.77150571e-01, -8.98131371e-01, 1.49895716e+00,
          1.76324978e-01, -7.42584825e-01, 1.87393859e-01,
          2.15163246e-01, 3.40027601e-01, 2.12056085e-01,
          -8.76381874e-01, -5.71308613e-01, -1.10397327e+00,
          1.61178168e-02, 1.65916419e+00, 1.69528380e-01,
          -1.69529065e-01 ]
      - [ 1.10024691e-01, -2.85459965e-01, -7.14147568e-01,
          -2.87471414e-01, 6.37848675e-02, -6.24879420e-01,
          3.88507545e-02, -2.99524337e-01, 2.78265119e-01,
          2.38638505e-01, 8.24245632e-01, 3.83572519e-01, 2.37620696e-01,
          8.70066807e-02, -2.11651877e-01, 1.61125243e-01,
          -1.17705441e+00, -8.21768165e-01, 1.72472191e+00,
          2.74100691e-01, 6.89695239e-01, -5.84694207e-01,
          -6.27030879e-02, -4.22980227e-02, 4.70516145e-01,
          2.27638543e-01, -7.36529768e-01, -1.26229262e+00,
          8.41530919e-01, 1.15729141e+00, 4.76855546e-01,
          -4.76855755e-01 ]
      - [ -5.91545478e-02, -6.65533125e-01, -1.07485943e-01,
          -4.02312189e-01, 1.16751842e-01, 4.46610041e-02,
          -3.65847021e-01, -3.37669015e-01, 3.31392139e-01,
          8.36378753e-01, 3.74389440e-01, 3.47626835e-01, 1.61219165e-01,
          -2.14025930e-01, -1.72824249e-01, 1.12432860e-01,
          -1.23448586e+00, -5.42103231e-01, 1.88978732e+00,
          -1.13198258e-01, 5.50208330e-01, 1.48075400e-03,
          -2.71767795e-01, -2.79921591e-01, 4.72328782e-01,
          2.29438692e-01, -5.63274741e-01, -1.21331418e+00,
          1.11496401e+00, 6.61624849e-01, 8.89582336e-01,
          -8.89581919e-01 ]
      - [ 2.75144041e-01, -6.05629245e-03, -3.40349108e-01,
          -6.80489600e-01, 9.61593464e-02, -5.48140585e-01,
          -6.41547203e-01, 2.23263446e-02, 8.70433450e-02,
          4.30320859e-01, 3.16380799e-01, 7.29248881e-01, 2.57975131e-01,
          2.89467156e-01, 3.45731080e-02, -3.22056174e-01,
          -7.51751006e-01, -1.07120216e+00, 1.56299376e+00,
          2.59959280e-01, 7.16321886e-01, 1.65591151e-01,
          -6.30942345e-01, -2.50970453e-01, -2.78671801e-01,
          -6.33740723e-01, -1.82893500e-01, -1.64005947e+00,
          1.06480646e+00, 7.58146584e-01, -4.42986101e-01,
          4.42986280e-01 ]
      - [ -1.70281067e-01, -3.36168140e-01, -3.80849451e-01,
          -3.80849451e-01, 9.19571519e-02, -8.79875124e-02,
          -5.58704548e-02, -1.25443980e-01, 2.57215738e-01,
          4.22237962e-01, 3.97227585e-01, 2.89332807e-01, 1.02635972e-01,
          -5.14067523e-03, -5.14067523e-03, -1.28758186e-02,
          -1.26814806e+00, -1.77344814e-01, 1.36601424e+00,
          7.94787928e-02, 2.81527728e-01, -7.05838483e-03,
          -4.46330309e-02, -2.29836419e-01, 1.26083240e-01,
          8.81540477e-02, -5.02479553e-01, -9.43013310e-01,
          7.76948988e-01, 6.68543875e-01, 6.75607681e-01,
          -6.75607681e-01 ]
      - [ -1.77936209e-03, -3.92311692e-01, -4.04349059e-01,
          -1.29391685e-01, -6.72204271e-02, -5.24380021e-02,
          -2.65155621e-02, -2.73261636e-01, 4.27427590e-02,
          4.09793586e-01, 3.97976786e-01, 5.24912514e-02, 9.07551646e-02,
          1.58553496e-01, 1.10031605e-01, 8.49228054e-02,
          -9.27831829e-01, -4.19435680e-01, 9.03004467e-01,
          4.44263041e-01, 6.44980296e-02, 1.23597346e-01, 7.71437287e-02,
          -2.65239298e-01, 4.28682268e-01, 3.44641507e-01,
          -5.13749540e-01, -8.33517909e-01, 7.01844931e-01,
          6.45422459e-01, 7.28816807e-01, -7.28816807e-01 ]
      - [ -1.68264478e-01, -2.52490640e-01, -3.03838730e-01,
          -3.12519819e-01, 1.00512967e-01, 0., 0., -1.60969734e-01,
          1.93050966e-01, 3.79571676e-01, 3.79571676e-01, 1.54970691e-01,
          6.71425238e-02, -5.07909581e-02, -5.07909581e-02,
          2.48448141e-02, -1.03711355e+00, -6.04567751e-02,
          1.10716498e+00, -9.59448982e-03, 1.92441985e-01,
          7.62901008e-02, 2.49419939e-02, -2.93674082e-01,
          2.36152023e-01, 1.34194359e-01, -3.20242077e-01,
          -7.77328312e-01, 5.88974237e-01, 5.08596122e-01,
          7.59143353e-01, -7.59143710e-01 ]
      - [ -1.99827433e-01, -3.05234283e-01, -3.35022449e-01,
          -3.21621567e-01, 5.85793108e-02, -7.03358129e-02,
          -4.61376496e-02, -1.43658012e-01, 1.63603425e-01,
          3.05078328e-01, 3.42677414e-01, 1.67700261e-01, 2.95188259e-02,
          1.74688920e-01, 1.78039148e-01, 1.95154652e-03,
          -1.16170573e+00, -2.01552168e-01, 9.79059517e-01,
          3.84198427e-01, 5.18740825e-02, 1.04197182e-01, 1.39556453e-01,
          -2.95627803e-01, 7.44657293e-02, -3.31620313e-02,
          -5.16818166e-01, -8.46439660e-01, 6.72889471e-01,
          6.90368354e-01, 5.31282306e-01, -5.31282425e-01 ]
      - [ -1.87046289e-01, -3.19889784e-01, -4.07664150e-01,
          -2.94052839e-01, -3.61365965e-04, -1.61519870e-01,
          -2.61179227e-02, 7.33047500e-02, 9.73481014e-02,
          2.04890579e-01, 3.00194412e-01, 3.66410464e-01, 1.70022342e-02,
          8.34550932e-02, 1.30236223e-01, 1.23810410e-01,
          -1.20865309e+00, -1.14694431e-01, 9.68843639e-01,
          3.54503959e-01, -7.30573535e-02, -1.93063945e-01,
          -3.35146883e-03, 2.69472748e-01, 7.54387006e-02,
          -9.82779637e-02, -6.68817341e-01, -6.54530227e-01,
          4.02696013e-01, 9.20651555e-01, 3.17447215e-01,
          -3.17447126e-01 ]
      - [ 3.64400856e-02, -4.22572225e-01, -4.58572298e-01,
          -1.76373959e-01, 4.79396805e-02, -3.18305455e-02,
          1.03593096e-02, -3.45833272e-01, 1.88469112e-01,
          5.33369243e-01, 3.81547749e-01, 1.52909055e-01, 1.47600055e-01,
          1.82227731e-01, -1.82278439e-01, -6.34011850e-02,
          -1.02107847e+00, -3.19364846e-01, 1.25629508e+00,
          8.41481835e-02, 4.20448780e-01, 2.61194170e-01,
          -2.48943612e-01, -4.32699412e-01, 3.22756082e-01,
          5.14954686e-01, -3.70023012e-01, -9.70420182e-01,
          1.05166614e+00, 2.88777024e-01, 8.93445790e-01,
          -8.93445969e-01 ]
      - [ -1.65853217e-01, -2.97820061e-01, -3.26204747e-01,
          -2.99021035e-01, 3.07500720e-01, -2.28343338e-01, 0.,
          1.41923400e-02, 4.21039432e-01, 2.08300427e-01, 4.25770253e-01,
          3.83193195e-01, -8.70528668e-02, -1.23909131e-01,
          -1.02162130e-01, -1.29629865e-01, -1.08889902e+00,
          9.33497325e-02, 1.43830323e+00, -4.42754060e-01,
          4.75634009e-01, -4.41772133e-01, -2.59662210e-03,
          -3.12653556e-02, -9.80561674e-02, -1.77773461e-01,
          -3.84515792e-01, -6.11033440e-01, 4.18377846e-01,
          5.77171326e-01, 4.05727357e-01, -4.05727088e-01 ]
      - [ -2.01702446e-01, -3.37590039e-01, -3.27693492e-01,
          -3.00001085e-01, 2.55874038e-01, -2.85712719e-01,
          -2.79113591e-01, 2.76699271e-02, 1.02926344e-01,
          3.77660871e-01, 3.84259999e-01, 1.27987072e-01, 1.10178508e-01,
          1.71567947e-01, 1.71567947e-01, 2.12072721e-03,
          -1.16698706e+00, -2.81282365e-01, 9.92834389e-01,
          4.55435097e-01, 2.67276406e-01, -7.40739331e-02,
          -5.09791560e-02, -1.42223343e-01, -1.01034380e-01,
          -9.12753046e-02, -5.69131136e-01, -8.79138291e-01,
          7.62333691e-01, 6.85935795e-01, 1.97094560e-01,
          -1.97094664e-01 ]
      - [ -1.72037750e-01, -2.25078836e-01, -2.32394844e-01,
          -2.09155366e-01, 1.18885204e-01, 1.64610296e-02,
          1.82900317e-02, -1.13830872e-01, 1.62781283e-01,
          1.81071311e-01, 1.82900324e-01, 2.51733828e-02, 9.69371721e-02,
          9.14501622e-02, 9.14501622e-02, -3.29023898e-02,
          -8.38666737e-01, 3.98053937e-02, 5.51926374e-01,
          2.46935084e-01, 2.06565887e-01, 6.39036670e-02, 6.02456555e-02,
          -3.30715239e-01, -5.57878520e-03, 8.71431530e-02,
          -2.61770338e-01, -5.37091076e-01, 5.32239914e-01,
          2.66621470e-01, 3.98722708e-01, -3.98722649e-01 ]
      - [ -1.34043083e-01, -3.47363681e-01, -3.86241496e-01,
          -3.08993191e-01, 1.50807127e-01, -3.86241496e-01, 0.,
          1.94389001e-02, 3.21767986e-01, 1.96925551e-01, 5.83167017e-01,
          5.24850309e-01, -8.26902613e-02, -1.36510417e-01,
          2.53651035e-03, -1.74096692e-02, -1.17664146e+00,
          -2.15995446e-01, 1.62671065e+00, -2.34073922e-01,
          2.55841732e-01, -6.73190057e-01, 1.99462056e-01,
          2.17886314e-01, 4.54728194e-02, -1.94757968e-01,
          -7.16841102e-01, -6.75795794e-01, 2.99492806e-01,
          1.09314406e+00, 3.93851101e-01, -3.93851012e-01 ]
      - [ -1.71644509e-01, -4.04354960e-01, -3.93812567e-01,
          -3.62307549e-01, 2.24467576e-01, -4.31316406e-01,
          1.21087558e-03, 5.36784828e-02, 5.78654528e-01, 6.19246602e-01,
          2.01138809e-01, 4.12586719e-01, -1.06212765e-01,
          -5.69556393e-02, -9.63369012e-02, -6.80423602e-02,
          -1.33211958e+00, -1.51959449e-01, 1.81162679e+00,
          -3.27547759e-01, 5.25264680e-01, -2.73380488e-01,
          -2.87799776e-01, 3.59152555e-02, -4.69864517e-01,
          1.51937202e-01, -7.82848239e-01, -7.01230764e-01,
          1.03473270e+00, 4.49346155e-01, 3.90279979e-01,
          -3.90279919e-01 ]
      - [ -1.32293969e-01, -3.15491229e-01, -3.31611902e-01,
          -3.31611902e-01, 7.72513030e-03, -7.42657855e-02,
          -1.08923681e-01, -9.90002509e-03, 9.33954641e-02,
          2.60815024e-01, 3.14586997e-01, 3.62715155e-01, 4.22660969e-02,
          -1.46684110e-01, 1.95981547e-01, 1.73297241e-01,
          -1.11100900e+00, -1.85364380e-01, 1.03151274e+00,
          2.64860749e-01, 1.10926153e-02, -2.75626123e-01,
          7.00329393e-02, 1.94500476e-01, 2.81324476e-01,
          -1.37454465e-01, -5.14325857e-01, -7.82047570e-01,
          2.49792427e-01, 1.04658091e+00, 3.92212570e-01,
          -3.92212301e-01 ]
      - [ -1.80209532e-01, -4.24198866e-01, -2.59884268e-01,
          -4.09514606e-01, 1.03955917e-01, -3.67738992e-01,
          2.62916610e-02, -3.11279088e-01, 2.83610106e-01,
          5.46160161e-01, 5.85803151e-01, 3.23253095e-01, 5.35052754e-02,
          2.49587536e-01, -2.30804622e-01, 1.14630386e-02,
          -1.27380729e+00, -5.48770607e-01, 1.73882663e+00,
          8.37510675e-02, 2.60861605e-01, 3.80991632e-03, 1.21405862e-01,
          -3.86077553e-01, 4.93176505e-02, 2.16442510e-01,
          -8.68191421e-01, -9.54386353e-01, 1.13286293e+00,
          6.89714611e-01, 7.90516019e-01, -7.90515840e-01 ]
      - [ -3.86638165e-01, 8.47689584e-02, 0., 0., -5.55732369e-01,
          -6.26816869e-01, -5.78810692e-01, -3.51391703e-01,
          -2.46317647e-02, 6.92723632e-01, 5.96711278e-01,
          1.91395879e-01, -1.85959101e-01, 4.23844784e-01,
          4.23844784e-01, 2.96691328e-01, -3.01869184e-01,
          -2.11275172e+00, 1.45619953e+00, 9.58421767e-01,
          -1.15296125e+00, 5.74520648e-01, 4.41745430e-01,
          1.36695445e-01, -1.20052375e-01, -7.20459893e-02,
          -1.48441827e+00, -9.30202425e-01, 9.05977666e-01,
          1.50864339e+00, 8.38074908e-02, -8.38080347e-02 ]
      - [ -2.09676698e-01, -3.47413808e-01, -3.41545254e-01,
          -1.62442252e-01, 2.97406733e-01, 0., 0., -2.15358764e-01,
          3.11419159e-01, 3.99298370e-01, 3.78472447e-01, 1.58190042e-01,
          -9.03037339e-02, -1.00337468e-01, -1.00337468e-01,
          2.26287805e-02, -1.06107807e+00, 8.20479617e-02,
          1.24737990e+00, -2.68349916e-01, 3.08845371e-01,
          -4.84529249e-02, -6.34102821e-02, -1.96982294e-01,
          1.91424564e-01, 1.46552414e-01, -2.59683758e-01,
          -7.19346285e-01, 5.20076275e-01, 4.58953738e-01,
          7.77770817e-01, -7.77771115e-01 ]
      - [ -4.99258906e-01, -4.37331706e-01, 0., 0., 7.37535954e-01,
          -5.08115530e-01, -9.36061561e-01, -5.23520470e-01,
          1.01125658e+00, 7.35879242e-01, 3.07933211e-01,
          -1.57944828e-01, -3.35377544e-01, -1.03246197e-01,
          2.83495784e-01, 4.24755871e-01, -9.36590612e-01,
          -1.23016143e+00, 1.89712465e+00, 2.69627780e-01,
          9.14156079e-01, -3.12814146e-01, -3.44632566e-01,
          -2.56709456e-01, -2.74685353e-01, -5.35559833e-01,
          -7.07170188e-01, -1.45958209e+00, 1.30851209e+00,
          8.58240008e-01, -4.00364578e-01, 4.00363833e-01 ]
      - [ -2.38885477e-01, 4.02743779e-02, -2.79484317e-02,
          -4.48711485e-01, 3.46749067e-01, -6.20192051e-01,
          -6.59442723e-01, -6.58195987e-02, 4.11665231e-01,
          2.43613437e-01, 2.41742566e-01, 4.18534160e-01, 1.68060455e-02,
          2.66364217e-01, 2.67640144e-01, -1.92389429e-01,
          -6.75270975e-01, -9.98705268e-01, 1.31555545e+00,
          3.58420938e-01, 5.36334991e-01, -6.99399486e-02,
          -1.78008467e-01, -2.88386405e-01, -8.09724391e-01,
          -8.47734690e-01, -4.72054034e-01, -1.20192218e+00,
          9.38448966e-01, 7.35527515e-01, -7.94278860e-01,
          7.94278324e-01 ]
      - [ -4.27047729e-01, 5.21961451e-02, 0., 0., 2.77611107e-01,
          -1.12873328e+00, -4.98389840e-01, -2.72000730e-01,
          4.68757063e-01, -2.97149904e-02, 4.02533382e-01,
          3.15416455e-01, -1.85699582e-01, 3.51270556e-01,
          3.96353811e-01, 2.77447641e-01, -3.74851584e-01,
          -1.62151277e+00, 1.15699220e+00, 8.39372337e-01,
          1.33620813e-01, -7.54981518e-01, 3.00497413e-01,
          3.20863307e-01, -8.75800073e-01, -7.13804364e-01,
          -1.22597361e+00, -7.70390570e-01, 6.04613066e-01,
          1.39175141e+00, -1.25430477e+00, 1.25430417e+00 ]
      - [ -3.60663012e-02, 4.07635123e-02, -1.76872477e-01,
          -5.12930155e-01, 7.03466386e-02, -1.33715821e-02,
          -4.70186234e-01, -3.08352500e-01, 2.31300026e-01,
          1.67920485e-01, 7.01591671e-01, 2.60884672e-01,
          -3.26096207e-01, 2.06994504e-01, 2.95430750e-01,
          -1.31356865e-01, -6.85105443e-01, -7.21563637e-01,
          1.36169696e+00, 4.49721068e-02, -6.05158731e-02,
          4.02306944e-01, 3.49963695e-01, -6.91754937e-01,
          5.20796895e-01, -1.14129198e+00, 6.16722815e-02,
          -1.46834135e+00, 2.80118853e-01, 1.12655020e+00,
          3.85954291e-01, -3.85954469e-01 ]
      - [ -4.50834334e-01, 3.31209779e-01, -6.65167987e-01,
          1.26432633e+00, 2.00893462e-01, -6.73595726e-01,
          1.90805578e+00, 9.97723103e-01, 1.05757408e-01,
          -8.83416295e-01, 7.52493858e-01, -2.08458051e-01,
          1.90238893e-01, 3.64568263e-01, -3.30499911e+00,
          7.12045059e-02, 4.79534209e-01, 2.43307662e+00,
          -2.33623385e-01, -2.67898750e+00, 4.60551381e-02,
          -8.61234009e-01, -1.30961752e+00, 2.12479639e+00,
          -3.00731182e-01, 2.47920489e+00, -5.92326581e-01,
          3.50493741e+00, -2.22852036e-01, -2.68975997e+00,
          1.10353756e+00, -1.10353899e+00 ]
      - [ 5.12522876e-01, -2.40937136e-02, -9.21369493e-01,
          2.80134469e-01, 7.74244666e-02, -9.55994725e-01,
          3.00723195e-01, 4.80445921e-01, 3.10074687e-01, 1.43125415e-01,
          -4.00530249e-01, -4.71820682e-01, 3.32447261e-01,
          6.89581811e-01, -2.66098857e-01, -8.65723565e-02,
          -1.52805835e-01, -9.74011421e-02, -4.19150829e-01,
          6.69357896e-01, 1.23246908e+00, -1.47381216e-01,
          -1.28727531e+00, 2.02187344e-01, -9.30574596e-01,
          1.05643046e+00, -3.90141070e-01, 1.39934286e-01,
          1.47522914e+00, -1.22502220e+00, -9.12676275e-01,
          9.12677050e-01 ]
      - [ -5.38273454e-01, -1.09791291e+00, -5.46555758e-01,
          6.33965909e-01, 1.06629223e-01, -1.07446563e+00,
          1.03465080e+00, 5.45447528e-01, 6.57096729e-02,
          -3.27610433e-01, 1.16396928e+00, -5.95661514e-02,
          1.72882229e-02, 1.17317879e+00, -1.23045051e+00,
          1.33995354e-01, -1.54877627e+00, 6.12261713e-01,
          8.42502475e-01, 9.40116122e-02, -3.48646402e-01,
          -1.32680976e+00, 4.21613902e-01, 1.25384259e+00,
          -3.14774215e-01, 1.35829461e+00, -2.60402298e+00,
          1.66750836e+00, 9.28566098e-01, 7.94797391e-03, 7.96543896e-01,
          -7.96544433e-01 ]
      - [ 1.65172473e-01, -1.05590248e+00, -1.45424664e+00,
          6.30215824e-01, 3.01632613e-01, -1.09320891e+00,
          1.20568991e+00, 5.25256395e-01, 1.57123879e-01,
          -3.72753561e-01, 1.18901563e+00, 1.25377299e-02,
          1.97067380e-01, 9.95998681e-01, -1.38948774e+00,
          -1.41112031e-02, -1.71476078e+00, 9.39369678e-01,
          9.85924125e-01, -2.10533038e-01, 8.20996165e-01,
          -1.52586651e+00, -4.49028790e-01, 1.15389907e+00,
          2.46868074e-01, 1.66021979e+00, -1.68230629e+00,
          9.06915128e-01, 9.77436304e-01, -2.02045634e-01,
          9.28743005e-01, -9.28742766e-01 ]
      - [ -7.35343516e-01, -2.35026121e-01, 4.94384170e-02,
          6.93991482e-01, -3.30876559e-01, -5.55076972e-02,
          -1.41275480e-01, 8.80197510e-02, -8.27239677e-02,
          -8.67795467e-01, 2.04497389e-02, 9.88768280e-01,
          -9.59953547e-01, 7.52100945e-01, 0., 8.15733850e-01,
          -2.26939633e-01, -4.39640105e-01, 5.86988665e-02,
          6.07881308e-01, -2.10889792e+00, -4.06228334e-01,
          -7.13871494e-02, 2.58651328e+00, 4.53324020e-02,
          -1.27503288e+00, -1.35675371e+00, 6.90174341e-01,
          -1.15837181e+00, 1.82495201e+00, -1.04412901e+00,
          1.04412961e+00 ]
      - [ 3.01730573e-01, -6.37195945e-01, -1.90882075e+00,
          8.83513689e-01, 1.75195038e-01, -1.61092913e+00,
          1.43785012e+00, 7.87271857e-01, 1.21083952e-01,
          -7.82265007e-01, 1.50618100e+00, -9.29212943e-02,
          5.46867073e-01, 1.01297092e+00, -1.79596615e+00,
          5.54343238e-02, -1.36077237e+00, 7.89387643e-01,
          7.52079189e-01, -1.80693805e-01, 1.14487612e+00,
          -2.01741886e+00, -7.60755658e-01, 1.63329840e+00,
          2.52417117e-01, 2.08596587e+00, -1.77119935e+00,
          1.19981480e+00, 8.98656964e-01, -3.27271849e-01,
          5.50836861e-01, -5.50836980e-01 ]
      - [ 6.51922703e-01, -1.87119901e+00, -1.05874026e+00,
          1.18312371e+00, 2.40744486e-01, -3.71586084e-01,
          3.48753303e-01, 8.79977822e-01, -5.55781387e-02,
          1.04538667e+00, 2.18534052e-01, -2.69371897e-01,
          4.18896496e-01, 2.21015245e-01, -2.32312489e+00,
          7.41245687e-01, -1.09489250e+00, 1.09788871e+00,
          9.38971341e-01, -9.41968203e-01, 1.25598490e+00,
          -9.76383030e-01, -2.81457782e+00, 2.53497577e+00,
          1.24011648e+00, 2.99616003e+00, -1.35011768e+00,
          1.35311460e+00, 1.62972033e+00, -1.63271725e+00,
          1.24108791e+00, -1.24108708e+00 ]
      - [ 7.32318997e-01, 9.33336243e-02, -5.09810567e-01,
          -7.62211680e-02, -3.35910618e-02, -1.13915241e+00,
          -1.10444233e-01, 1.04196918e+00, -2.51131117e-01,
          -3.00060004e-01, -2.45875418e-01, 6.66585326e-01,
          6.25536382e-01, 6.97791815e-01, -6.89723909e-01,
          -5.01525283e-01, 2.39620849e-01, -2.41218567e-01,
          -1.30481303e-01, 1.32079035e-01, 1.07313299e+00,
          -6.48087144e-01, -1.55585396e+00, 1.13080788e+00,
          -1.15423405e+00, 1.38810933e-01, -3.47090781e-01,
          3.45493227e-01, 7.72137046e-01, -7.70539165e-01,
          -1.79553199e+00, 1.79553235e+00 ]
      - [ -4.17153001e-01, -9.72660959e-01, -1.31582654e+00,
          9.41297635e-02, 3.32458645e-01, -4.56126779e-01,
          6.86754107e-01, 7.69829452e-01, 3.95633996e-01, 1.05909243e-01,
          5.27089119e-01, 3.65060359e-01, 2.90683448e-01, 5.61704278e-01,
          -9.33426201e-01, -3.40588614e-02, -2.61151052e+00,
          1.33291543e+00, 1.39369261e+00, -1.15097307e-01,
          6.01623356e-01, -7.61174202e-01, -1.03540945e+00,
          1.19496095e+00, -3.80249411e-01, 1.17747676e+00,
          -1.51348221e+00, 2.34886855e-01, 1.35393119e+00,
          -7.53355399e-02, 8.63625884e-01, -8.63625526e-01 ]
      - [ 5.68280034e-02, -1.11412406e+00, -1.40555024e+00,
          6.09994531e-01, -8.97597000e-02, -3.09316605e-01,
          6.30410016e-01, 1.82801783e-01, -2.36527756e-01,
          3.13428581e-01, 6.97968781e-01, -2.09006503e-01,
          4.60250601e-02, 9.86996174e-01, -3.70977968e-01,
          2.10809961e-01, -1.85285175e+00, 4.14135218e-01,
          5.65863371e-01, 8.72853220e-01, -2.23434374e-01,
          -1.23015940e-01, -4.48149443e-01, 7.94599771e-01,
          6.56290174e-01, 1.59985828e+00, -1.45637262e+00,
          1.76560488e-02, 1.10992205e+00, 3.28794271e-01, 1.33249080e+00,
          -1.33249080e+00 ]
      - [ -2.97599345e-01, -5.94629705e-01, -8.00064862e-01,
          -2.08222717e-02, 2.39456236e-01, 1.23454509e-02,
          5.92581630e-01, 3.50565284e-01, 1.79208189e-01, 2.59254485e-01,
          5.67890763e-01, 1.18220501e-01, 1.01437531e-01, 5.17712347e-02,
          -8.00064862e-01, 4.04498540e-02, -1.71311593e+00,
          1.19494867e+00, 1.12457383e+00, -6.06406033e-01,
          2.22502932e-01, -2.71258533e-01, -4.39657301e-01,
          4.88413483e-01, 3.23086679e-01, 9.32451367e-01,
          -6.40427291e-01, 1.22259751e-01, 5.91671467e-01,
          -7.35036954e-02, 1.43207240e+00, -1.43207312e+00 ]
      - [ -3.47109616e-01, -1.06389737e+00, -1.24233222e+00,
          -6.21006787e-02, 2.18335584e-01, -4.04367030e-01,
          6.30618811e-01, 6.27275288e-01, 2.22293675e-01, 1.75091311e-01,
          5.57233870e-01, 9.44047347e-02, -6.81976229e-02,
          7.81494319e-01, -1.01091757e-01, -1.76517218e-02,
          -2.71543980e+00, 1.07186270e+00, 1.04902351e+00,
          5.94553232e-01, 2.53220685e-02, -5.11678755e-01,
          -1.55571193e-01, 6.41927540e-01, -2.11894453e-01,
          6.75411820e-01, -1.59703827e+00, -4.65386137e-02,
          1.11068165e+00, 5.32895088e-01, 9.58576858e-01,
          -9.58577156e-01 ]
      - [ -3.02650601e-01, -5.96726954e-01, -8.21025133e-01,
          -8.78100917e-02, -2.37589143e-02, -3.50322872e-01,
          3.26910526e-01, 6.47559702e-01, -3.50067019e-02,
          -9.30919349e-02, 2.45440856e-01, 4.02369469e-01,
          -2.31319834e-02, 4.30413812e-01, -3.06088608e-02,
          3.11439633e-01, -1.80821276e+00, 6.00388408e-01,
          5.19711792e-01, 6.88112557e-01, -3.84548277e-01,
          -6.09727919e-01, -2.79282600e-01, 1.27355874e+00,
          -9.60928276e-02, 1.22876562e-01, -1.27345943e+00,
          6.56349733e-02, 2.79183179e-01, 9.28641200e-01, 1.28936529e-01,
          -1.28936410e-01 ]
      - [ 1.31425247e-01, -8.79449546e-01, -1.06610405e+00,
          4.67595130e-01, 2.53965199e-01, -5.11062555e-02,
          6.53290749e-01, 5.06012738e-01, 8.60400051e-02, 1.68244749e-01,
          3.18399340e-01, 5.33435717e-02, 2.15707406e-01, 6.02983594e-01,
          -1.28957808e+00, -1.70769677e-01, -1.34653318e+00,
          1.36216247e+00, 6.26027524e-01, -6.41656816e-01,
          6.87137723e-01, -1.59327433e-01, -1.38399184e+00,
          8.56181800e-01, 2.27948546e-01, 1.50483811e+00,
          -5.45165539e-01, 5.60794652e-01, 1.07297552e+00,
          -1.08860505e+00, 1.08882868e+00, -1.08882928e+00 ]
      - [ -1.82807922e-01, -4.10585254e-01, -5.34701943e-01,
          1.70890000e-02, 4.80369478e-01, -3.69177729e-01,
          4.29958493e-01, 5.94164073e-01, 4.68847781e-01,
          -9.70289633e-02, 4.43405241e-01, 3.76897007e-01,
          -2.18757838e-01, -1.06567852e-01, -6.04163826e-01,
          -2.86939740e-01, -1.11100602e+00, 1.13531423e+00,
          1.19212115e+00, -1.21642947e+00, 5.47651410e-01,
          -9.83359873e-01, -2.65502006e-01, 7.01210380e-01,
          -3.95520091e-01, 1.31260738e-01, -4.82201338e-01,
          5.06509542e-01, 4.64930311e-02, -7.08012730e-02,
          4.07157063e-01, -4.07156557e-01 ]
      - [ -2.38548309e-01, -9.11174417e-01, -9.17985737e-01,
          3.49782147e-02, 6.82919919e-01, -9.34476197e-01,
          -1.79244071e-01, 9.27101552e-01, -7.06221759e-02,
          2.57650554e-01, 4.68697637e-01, -1.03756741e-01,
          1.78834364e-01, 6.92599118e-01, 0., 1.13026194e-01,
          -2.03273010e+00, 4.96301204e-01, 5.51969290e-01,
          9.84459639e-01, 5.52583754e-01, -8.95401001e-01,
          -6.28532290e-01, 9.71349299e-01, -5.91300488e-01,
          2.92218894e-01, -1.40127897e+00, -1.35150209e-01,
          1.05846179e+00, 4.77967083e-01, -3.87372255e-01,
          3.87372255e-01 ]
      - [ -2.68237323e-01, -4.64849412e-01, -4.97618109e-01,
          -1.57853439e-01, 2.56688029e-01, 0., 2.45765120e-01,
          5.31463176e-02, 2.51226574e-01, 1.41997620e-01, 2.07534984e-01,
          -8.33898559e-02, 1.63843423e-01, 2.29380772e-01, 0.,
          -7.76347667e-02, -1.38855815e+00, 5.55599451e-01,
          5.17369330e-01, 3.15589428e-01, 4.03520674e-01,
          -9.34710205e-02, -4.43179905e-02, -2.65731752e-01,
          -1.38337106e-01, 3.93752724e-01, -4.76398706e-01,
          -3.56560141e-01, 7.86448359e-01, 4.65103984e-02,
          5.95297694e-01, -5.95297515e-01 ]
      - [ -1.48217112e-01, -5.02552271e-01, -6.89159274e-01,
          1.42824143e-01, 2.31716618e-01, -6.12601459e-01,
          6.28477752e-01, 8.69171321e-01, 2.44475737e-01,
          -2.33688593e-01, 6.55221462e-01, 5.34874678e-01,
          -2.55714715e-01, -4.88868020e-02, -6.32271886e-01,
          -1.83669522e-01, -1.19710445e+00, 1.11676419e+00,
          1.20088339e+00, -1.12054312e+00, 7.22604692e-02,
          -1.39772916e+00, -3.77319083e-02, 1.36320066e+00,
          -2.89266407e-01, 2.81898528e-01, -1.03165412e+00,
          9.51313913e-01, -2.93814510e-01, 3.74154806e-01,
          4.37409133e-01, -4.37409043e-01 ]
      - [ -1.90535009e-01, -4.98851955e-01, -6.40364707e-01,
          2.17570677e-01, 3.59037548e-01, -8.14604878e-01,
          5.79431117e-01, 8.87748063e-01, 6.52413726e-01, 3.00903916e-01,
          -1.54755145e-01, 1.93702161e-01, -2.50091583e-01,
          2.28013128e-01, -6.88009918e-01, -1.81607276e-01,
          -1.11218083e+00, 1.01161182e+00, 9.92264688e-01,
          -8.91695797e-01, 5.70824504e-01, -7.84539938e-01,
          -9.03698564e-01, 1.11741352e+00, -1.34150231e+00,
          8.47814202e-01, -1.14495432e+00, 1.04438519e+00,
          9.31239188e-01, -8.30670238e-01, -8.90250057e-02,
          8.90251324e-02 ]
      - [ -2.73388535e-01, -7.00025320e-01, -8.89310420e-01,
          -1.59210756e-01, 5.23048511e-04, -2.78409660e-01,
          2.23099068e-01, 6.95553422e-01, -4.35423292e-02,
          3.73182818e-02, 4.18137521e-01, 5.40814519e-01, 5.38460799e-02,
          -1.10385820e-01, 6.58496618e-02, 4.19131279e-01,
          -2.02193475e+00, 6.40765727e-01, 9.52728093e-01,
          4.28441137e-01, -2.62561977e-01, -1.05150259e+00,
          -1.82224065e-01, 1.49628854e+00, 2.85470694e-01,
          1.55052722e-01, -1.25130045e+00, -1.29868746e-01,
          -6.27639368e-02, 1.44393313e+00, 4.00145084e-01,
          -4.00144398e-01 ]
      - [ -3.90481979e-01, -9.40037727e-01, -7.39262521e-01,
          4.08981174e-01, 3.49327803e-01, -1.28495812e+00,
          1.19126511e+00, 7.62965500e-01, 2.25741521e-01, 4.15098332e-02,
          7.57779539e-01, 4.86578755e-02, 2.05179974e-02, 1.40391874e+00,
          -1.80234432e+00, -5.35806827e-02, -1.66080070e+00,
          1.01859999e+00, 1.07368886e+00, -4.31488693e-01,
          2.05105022e-01, -7.79566944e-01, -5.92562139e-01,
          1.16702402e+00, -9.71241236e-01, 1.66227424e+00,
          -2.26615024e+00, 1.62394905e+00, 1.69168782e+00,
          -1.04948759e+00, 7.05596089e-01, -7.05595613e-01 ]
      - [ -1.78153515e-01, 1.25298187e-01, 3.57994810e-02,
          9.84485745e-01, -5.82417548e-01, -9.17998195e-01,
          2.34365724e-02, 2.26989716e-01, -4.21082586e-01,
          -1.02359146e-01, -9.94724706e-02, -2.16961101e-01,
          -3.27444017e-01, 8.59187603e-01, 0., 5.90691447e-01,
          9.67429936e-01, -1.24998951e+00, -8.39875162e-01,
          1.12243509e+00, -1.50909781e+00, -3.58715244e-02,
          -4.02363241e-02, 1.58520567e+00, -6.04932725e-01,
          5.78119218e-01, -1.55327094e+00, 1.27071154e+00,
          8.30195472e-03, 2.74257898e-01, -1.09639335e+00,
          1.09639394e+00 ]
      - [ -2.99386591e-01, -6.37243748e-01, -6.81336105e-01,
          3.40447575e-01, 5.78049898e-01, 1.01412255e-02, 4.86778855e-01,
          2.05525190e-01, 3.53675276e-01, 1.87667802e-01, 3.99035215e-01,
          7.69961849e-02, -2.46971920e-01, -4.90526669e-02,
          -7.48797238e-01, 2.44712383e-02, -1.27751887e+00,
          1.28049517e+00, 1.01737440e+00, -1.02035069e+00,
          3.85366738e-01, -4.88487422e-01, -5.44319272e-01,
          6.47440135e-01, 1.34261116e-01, 7.67922401e-01,
          -3.48439187e-01, 3.51415485e-01, 2.45318413e-01,
          -2.48294517e-01, 1.08362317e+00, -1.08362353e+00 ]
      - [ -8.81837189e-01, -7.36316681e-01, -2.73925811e-01,
          1.54570580e+00, 1.30368483e+00, -8.89817119e-01,
          -3.84381890e-01, -1.99115321e-01, 1.25131202e+00,
          -2.78830320e-01, -5.56873441e-01, -7.03006387e-01,
          -7.00007737e-01, 7.21890807e-01, -8.95781815e-02,
          8.71096432e-01, -3.46373677e-01, -1.69629857e-01,
          -2.87398010e-01, 8.03401172e-01, 9.73151386e-01,
          -1.18307340e+00, -1.30475938e+00, 1.51468050e+00,
          -1.45743120e+00, 1.82485864e-01, -1.20428622e+00,
          6.88282549e-01, 9.94364560e-01, -4.78361398e-01,
          -2.10990286e+00, 2.10990262e+00 ]
      - [ -1.27578065e-01, 7.82876685e-02, 5.29593788e-03,
          1.79606527e-01, 4.25314516e-01, -1.01747966e+00,
          -2.60224819e-01, 4.79756266e-01, 2.65193313e-01,
          -3.57160002e-01, -3.63227308e-01, 1.62936240e-01,
          4.06987667e-02, 7.15519130e-01, -1.30294347e-02,
          -2.13909000e-01, 1.35612190e-01, -3.72633725e-01,
          -2.92257845e-01, 5.29279530e-01, 6.03628337e-01,
          -5.80832779e-01, -6.31185651e-01, 6.08389914e-01,
          -1.72219396e+00, -3.97079557e-01, -6.41455352e-01,
          4.04433936e-01, 6.64251328e-01, -4.27229404e-01,
          -1.99809182e+00, 1.99809194e+00 ]
      - [ -2.26754293e-01, 3.08170579e-02, 2.29901392e-02,
          6.32228792e-01, 2.15892881e-01, -9.62245584e-01,
          1.12451993e-01, 2.37846956e-01, 1.74988449e-01,
          -5.42613626e-01, -1.13915093e-01, -1.66800410e-01,
          -2.88646251e-01, 4.94421810e-01, 0., 3.79337281e-01,
          4.59281683e-01, -3.96053702e-01, -6.48340642e-01,
          5.85112870e-01, -1.24519438e-01, -9.79620278e-01,
          2.15270966e-02, 1.08261251e+00, -9.23577607e-01,
          -8.65791813e-02, -9.42289889e-01, 1.00551784e+00,
          -1.61849722e-01, 9.86218303e-02, -1.50632238e+00,
          1.50632250e+00 ]
      - [ 1.03086925e+00, 5.75433612e-01, -8.90405297e-01,
          -4.23986971e-01, 2.59473056e-01, -6.40985310e-01,
          -7.67058253e-01, 6.05573416e-01, 8.78160521e-02,
          -1.95794785e+00, 2.70729756e+00, -7.26984620e-01,
          -2.78951645e+00, 2.98593235e+00, 0., -5.55105582e-02,
          2.91910619e-01, -5.42997003e-01, 1.10181421e-01,
          1.40905574e-01, -1.41135943e+00, 9.62432742e-01,
          1.04983437e+00, -6.00909173e-01, 3.04167104e+00,
          -5.93850946e+00, 1.22479093e+00, -1.47587681e+00,
          -1.67371583e+00, 1.92480254e+00, -6.58694446e-01,
          6.58695579e-01 ]
      - [ 5.16075790e-01, -2.15729382e-02, -7.57260025e-01,
          9.95361153e-03, 1.48006901e-01, -8.65968108e-01,
          -3.24498534e-01, 1.80350751e-01, 1.10180832e-01,
          4.51218486e-01, -3.86658192e-01, -4.16849464e-01,
          4.19311583e-01, 5.97468853e-01, 4.67730522e-01,
          -1.27489895e-01, -2.52803594e-01, -8.62109065e-01,
          -2.42108196e-01, 1.35702097e+00, 1.19357514e+00,
          1.61146358e-01, -1.00068617e+00, -3.54034901e-01,
          -8.64040434e-01, 5.55985212e-01, -2.23458394e-01,
          -8.91454160e-01, 1.57817984e+00, -4.63266760e-01,
          -1.12590635e+00, 1.12590671e+00 ]
      - [ -4.02654737e-01, -1.96153903e+00, -4.35750633e-01,
          2.58615941e-01, -1.00262081e-02, -1.28879118e+00,
          3.04517418e-01, 7.58284777e-02, 8.29173326e-02,
          -1.38505638e-01, 1.14598668e+00, 1.30403647e-02,
          5.25437295e-02, 1.78727293e+00, 3.24583232e-01, 1.91961184e-01,
          -2.54132891e+00, -9.18471754e-01, 1.10343945e+00,
          2.35636091e+00, -2.77219176e-01, -1.60156250e+00,
          1.33933699e+00, 5.39445817e-01, -3.53498161e-01,
          4.77171481e-01, -3.66301179e+00, 2.03211337e-01,
          1.78422809e+00, 1.67557144e+00, 2.32072100e-02,
          -2.32075639e-02 ]
      - [ 4.49507982e-01, -1.90581119e+00, -1.83243740e+00,
          6.65369332e-02, 3.66648793e-01, -1.37300444e+00,
          4.41199273e-01, 4.07452464e-01, 3.78706187e-01,
          -4.18040037e-01, 1.32484829e+00, 2.64307529e-01,
          1.42705306e-01, 1.53460324e+00, 2.68351376e-01,
          -1.15574598e-01, -3.22220349e+00, -1.57703921e-01,
          1.54982233e+00, 1.83008480e+00, 1.33756852e+00,
          -2.16225243e+00, 2.01961830e-01, 6.22722864e-01,
          2.85777062e-01, 2.32401744e-01, -2.46265864e+00,
          -9.17248785e-01, 1.63797414e+00, 1.74193239e+00,
          -2.49968562e-02, 2.49995105e-02 ]
      - [ -4.38215852e-01, -1.43535972e-01, 1.17161870e-01,
          1.10061146e-01, -2.22658291e-01, 1.68895692e-01,
          -6.27906442e-01, -1.57737404e-01, -2.04906479e-01,
          -2.86564827e-01, 5.32554053e-02, 6.86233819e-01,
          -6.52251780e-01, 4.09812957e-01, 8.20133090e-01,
          3.68223041e-01, -3.54528815e-01, -8.39406490e-01,
          2.48018235e-01, 9.45917189e-01, -1.51803243e+00,
          1.48607850e-01, 3.62643957e-01, 1.00678062e+00, 1.52158365e-01,
          -1.45666182e+00, -6.35514379e-01, -5.58420837e-01,
          -7.33910024e-01, 1.92784560e+00, -6.92320228e-01,
          6.92319751e-01 ]
      - [ 9.51000810e-01, -1.35948157e+00, -3.06566882e+00,
          2.25266084e-01, 4.08802480e-01, -2.46410275e+00,
          4.19450670e-01, 1.05962873e+00, 3.34454745e-01,
          -9.39166367e-01, 2.02314925e+00, 5.66724896e-01,
          2.24454701e-01, 1.66876352e+00, 4.04085070e-02,
          -9.36840251e-02, -3.24888349e+00, -5.76220512e-01,
          1.98516285e+00, 1.83994222e+00, 1.91871309e+00,
          -3.09398699e+00, -5.82660079e-01, 1.75793588e+00,
          4.16363150e-01, -6.99949414e-02, -2.46378088e+00,
          -1.36132288e+00, 1.28850615e+00, 2.53659844e+00,
          -9.60669160e-01, 9.60673869e-01 ]
      - [ 1.34103501e+00, -4.93510914e+00, -1.93059936e-01,
          -1.98734887e-02, 4.75347102e-01, 3.63343984e-01,
          -2.85962796e+00, 1.31676745e+00, 5.46320140e-01,
          2.93725896e+00, -1.03662086e+00, 5.35461903e-01,
          -2.48199776e-01, 3.26320492e-02, 9.44052339e-01,
          8.00272465e-01, -3.80700755e+00, -7.04169869e-01,
          2.98242044e+00, 1.52875519e+00, 2.11450267e+00,
          -1.60187340e+00, -3.14525580e+00, 2.63262868e+00,
          1.46802986e+00, -1.90442771e-01, -2.75538254e+00,
          -1.75579309e+00, 3.26801038e+00, 1.24316573e+00,
          -5.95646024e-01, 5.95653951e-01 ]
      - [ 6.72636688e-01, 7.29671568e-02, -3.99110258e-01,
          -5.34869313e-01, -1.02154024e-01, -8.67438853e-01,
          -8.66233885e-01, 8.13617229e-01, -3.28285247e-01,
          -7.61803985e-02, -1.18220150e-01, 8.13617229e-01,
          5.46517253e-01, 6.80134237e-01, 3.23063731e-01,
          -6.30061328e-01, -1.88375875e-01, -1.02220976e+00,
          2.90931553e-01, 9.19653893e-01, 7.88714826e-01,
          -1.90517858e-01, -1.06050038e+00, 4.62303907e-01,
          -9.43083346e-01, -9.30766284e-01, -2.23989084e-01,
          -9.86596227e-01, 8.22186053e-01, 3.88399661e-01,
          -1.92807329e+00, 1.92807329e+00 ]
      - [ -3.35120440e-01, -1.26494455e+00, -1.37207592e+00,
          -6.01660192e-01, 2.91312188e-01, -2.54755825e-01,
          -2.22400486e-01, 5.92245519e-01, 4.80250448e-01,
          5.53537369e-01, 3.18063945e-01, 5.22771955e-01, 3.01616549e-01,
          5.14725447e-01, 6.30514741e-01, -1.54080972e-01,
          -3.57380128e+00, 4.06401306e-01, 1.87462401e+00,
          1.29277587e+00, 7.38059163e-01, -4.51437533e-01,
          -6.45897686e-01, 3.59276414e-01, -4.25893337e-01,
          3.10933907e-02, -1.56350899e+00, -1.60389078e+00,
          1.85012996e+00, 1.31726956e+00, 3.94445091e-01,
          -3.94445032e-01 ]
      - [ 1.41239524e-01, -1.17976999e+00, -1.11726284e+00,
          1.54576942e-01, -2.52688468e-01, -1.04609206e-01,
          -2.87646782e-02, -8.69400203e-02, -1.90181300e-01,
          5.12026548e-01, 4.55143154e-01, -2.36539155e-01,
          7.78967747e-03, 9.45396662e-01, 8.40065539e-01, 1.40517592e-01,
          -2.00121641e+00, -4.73002523e-01, 5.40449321e-01,
          1.93376935e+00, -2.93840587e-01, 1.73044175e-01,
          1.49181187e-01, -2.83847656e-02, 6.32291138e-01,
          6.45628512e-01, -1.39582825e+00, -1.07839060e+00,
          1.27503145e+00, 1.19918728e+00, 8.33795846e-01,
          -8.33794534e-01 ]
      - [ -3.86576921e-01, -8.19914639e-01, -9.22927141e-01,
          -4.42400008e-01, 1.71357915e-01, 1.71621531e-01,
          1.71621531e-01, 2.35716000e-01, 1.58473164e-01, 6.65033460e-01,
          6.65033460e-01, 1.84209764e-01, 2.97899153e-02, 2.09913049e-02,
          2.09913049e-02, 7.69791901e-02, -2.57181859e+00,
          7.50316918e-01, 1.67275000e+00, 1.48752093e-01,
          -2.69558076e-02, 3.77316363e-02, -6.52808547e-02,
          5.45048602e-02, 5.27057230e-01, 4.24044907e-01,
          -8.63512158e-01, -9.57989573e-01, 8.74287844e-01,
          9.47213888e-01, 1.67330992e+00, -1.67331195e+00 ]
      - [ -3.64865273e-01, -7.65369833e-01, -8.05357516e-01,
          -4.02611554e-01, 1.18663028e-01, -1.25566721e-01,
          -1.17407806e-01, 1.38656870e-01, 1.51612550e-01,
          2.31274098e-01, 2.79420733e-01, 9.97899175e-02, 1.02210641e-02,
          7.65100837e-01, 8.39875996e-01, -5.34364730e-02,
          -2.33820415e+00, 1.43453171e-02, 7.62097418e-01,
          1.56176138e+00, -8.43683705e-02, 1.05438441e-01,
          1.96531564e-01, -2.17601374e-01, -2.64447868e-01,
          -2.78524160e-01, -1.13713872e+00, -1.18671978e+00,
          1.15820837e+00, 1.16565013e+00, 2.67720282e-01,
          -2.67720342e-01 ]
      - [ -2.64464855e-01, -5.93281388e-01, -6.38574719e-01,
          -3.12500149e-01, -7.92126544e-03, -1.40348330e-01,
          -5.91385663e-02, 4.56335157e-01, -1.12386728e-02,
          -1.14587275e-02, 6.97510242e-02, 4.32317525e-01,
          -3.27343978e-02, 3.69861513e-01, 4.55184221e-01,
          2.88211673e-01, -1.80882144e+00, 2.48926952e-01,
          4.79371279e-01, 1.08052301e+00, -3.16358984e-01,
          -3.75226885e-01, -1.72778040e-01, 8.64364147e-01,
          -4.68505695e-02, -4.15831804e-01, -1.00601602e+00,
          -5.53878188e-01, 3.14429671e-01, 1.24546444e+00,
          -1.41194656e-01, 1.41194418e-01 ]
      - [ 6.45178318e-01, -1.92085314e+00, -1.83747959e+00,
          3.84868801e-01, 8.94215479e-02, 2.31371090e-01, 4.54074830e-01,
          2.48178348e-01, 1.13816306e-01, 1.01520240e+00, 1.88017100e-01,
          2.98729092e-02, 5.30850589e-02, 1.45642614e+00,
          -3.91032428e-01, -7.60147512e-01, -2.72828579e+00,
          1.02304590e+00, 1.34690881e+00, 3.58331263e-01, 9.01500940e-01,
          7.82146692e-01, -1.58641946e+00, -9.72276181e-02,
          3.04418772e-01, 1.90723133e+00, -9.54882324e-01,
          -7.50357330e-01, 2.63852930e+00, -9.33290064e-01,
          1.88866544e+00, -1.88866436e+00 ]
      - [ -2.33669952e-01, -6.65728688e-01, -6.65728688e-01,
          -1.99147969e-01, 6.55580163e-01, -4.84038591e-01,
          1.31116033e-01, 7.04748690e-01, 6.71969712e-01,
          -7.77868703e-02, 5.08074641e-01, 7.04748690e-01,
          -4.14657295e-01, -1.64288655e-01, -1.05702467e-01,
          -3.65488797e-01, -1.76427519e+00, 1.00740623e+00,
          1.80700624e+00, -1.05013740e+00, 6.79222524e-01,
          -1.39184296e+00, -1.32240534e-01, 8.44860613e-01,
          -5.75122774e-01, -5.60476005e-01, -7.27857053e-01,
          -2.90119909e-02, 1.52367353e-02, 7.41632164e-01,
          7.73652270e-02, -7.73649737e-02 ]
      - [ -2.39849687e-01, -6.08879805e-01, -5.38839102e-01,
          -2.34254897e-01, 4.49312180e-01, -5.25726140e-01,
          -5.52752197e-01, 4.11786616e-01, -6.20264709e-02,
          2.77990848e-01, 2.53150254e-01, -5.15270121e-02,
          1.60030395e-01, 5.79961181e-01, 6.36944354e-01, 4.46794741e-02,
          -1.62182343e+00, -2.17379540e-01, 4.17587727e-01,
          1.42161536e+00, 3.07466537e-01, -2.76653886e-01,
          -2.01496691e-01, 1.70684218e-01, -4.67746049e-01,
          -3.48985940e-01, -9.25143421e-01, -9.14059579e-01,
          9.55955923e-01, 8.83247077e-01, -5.47337294e-01,
          5.47337413e-01 ]
      - [ -2.93401778e-01, -3.97183508e-01, -3.97183508e-01,
          -2.32432857e-01, 1.97679520e-01, 3.95359024e-02,
          3.95359024e-02, -6.43521249e-02, 2.02621520e-01,
          1.53201625e-01, 1.53201625e-01, -6.43521249e-02,
          1.53201625e-01, 2.81693310e-01, 2.81693310e-01,
          -5.34585044e-02, -1.32020152e+00, 2.12399200e-01,
          4.44672704e-01, 6.63129747e-01, 2.60100871e-01, 7.72473440e-02,
          7.72473440e-02, -4.14595634e-01, -1.54122755e-01,
          1.13506332e-01, -4.53369886e-01, -6.54432595e-01,
          7.90718079e-01, 3.17084372e-01, 3.85475069e-01,
          -3.85475069e-01 ]
      - [ -7.72954002e-02, -8.63279164e-01, -8.70487213e-01,
          -2.43769333e-01, 3.47099215e-01, -6.32621884e-01,
          1.99484184e-01, 1.03369081e+00, 4.23620820e-01,
          -2.04362035e-01, 6.70992255e-01, 9.79286015e-01,
          -4.11613524e-01, -1.53931528e-01, 1.45068631e-01,
          -3.41881603e-01, -2.05483127e+00, 9.47652280e-01,
          1.86953723e+00, -7.62358010e-01, 2.81811506e-01,
          -1.85419464e+00, 1.45057976e-01, 1.42732573e+00,
          -3.80806714e-01, -6.60260797e-01, -1.22609723e+00,
          1.18918478e-01, -3.46286416e-01, 1.45346522e+00,
          3.34925242e-02, -3.34921628e-02 ]
      - [ -1.77726880e-01, -9.43459451e-01, -8.22113752e-01,
          -4.63143811e-02, 4.46385622e-01, -1.05749393e+00,
          9.67983902e-02, 1.08124769e+00, 9.87948596e-01, 6.94818735e-01,
          -5.45365393e-01, 5.03541350e-01, -5.40174484e-01,
          4.09492105e-01, 2.81174481e-01, -3.68758649e-01,
          -1.98961461e+00, 5.66937983e-01, 1.64094305e+00,
          -2.18266591e-01, 7.16433048e-01, -8.96642804e-01,
          -9.89506423e-01, 1.16971624e+00, -2.14934444e+00,
          2.05128461e-01, -1.73229456e+00, 3.09617817e-01,
          1.55208504e+00, -1.29408017e-01, -8.11242342e-01,
          8.11240315e-01 ]
      - [ -1.34674013e-01, -6.43371940e-01, -6.43371940e-01,
          -3.55786592e-01, -2.59256102e-02, -1.11748248e-01,
          -2.45866030e-01, 4.25954551e-01, -4.22358327e-02,
          8.88423324e-02, 1.67374045e-01, 5.54628968e-01, 3.99115160e-02,
          -1.59427509e-01, 7.15943754e-01, 3.69752616e-01,
          -1.77720439e+00, 4.24146056e-02, 7.68609583e-01,
          9.66180384e-01, -1.62923858e-01, -8.25705409e-01,
          -5.92005253e-03, 9.94549513e-01, 2.90704280e-01,
          -4.72898751e-01, -9.15719926e-01, -8.19069922e-01,
          -7.29096457e-02, 1.80769932e+00, -1.01397961e-01,
          1.01398677e-01 ]
      - [ -1.70596734e-01, -2.14069724e+00, -8.53137970e-01,
          -2.51661181e-01, 4.35345054e-01, -2.03769255e+00,
          2.60206282e-01, 4.35345054e-01, 3.88769776e-01, 6.14025176e-01,
          5.94317257e-01, 3.69061857e-01, 1.07779326e-02, 2.69428992e+00,
          -1.65207908e-01, -1.83145255e-01, -3.41609311e+00,
          -9.06796575e-01, 1.96617460e+00, 2.35671377e+00,
          6.64296865e-01, -8.70074153e-01, -1.63822100e-01,
          3.69600475e-01, -1.79711807e+00, 6.33348346e-01,
          -3.91364217e+00, -4.09247547e-01, 3.70786214e+00,
          6.15025342e-01, -5.69144249e-01, 5.69145977e-01 ]
      - [ -1.54747680e-01, 9.42500457e-02, 1.31950051e-01,
          4.71250206e-01, -6.95673943e-01, -5.12897849e-01,
          -5.22076130e-01, 1.33331761e-01, -4.49636787e-01,
          9.99741107e-02, -3.24694142e-02, -2.93013990e-01,
          -3.62591237e-01, 7.54000366e-01, 9.23650384e-01,
          4.14700180e-01, 5.42702556e-01, -1.59731615e+00,
          -6.75145686e-01, 1.72975957e+00, -1.66264951e+00,
          4.35326785e-01, 5.01054883e-01, 7.26268232e-01,
          -2.85414696e-01, -3.13442945e-01, -1.26906931e+00,
          2.14455888e-01, 4.17466424e-02, 1.01286733e+00,
          -9.67469215e-01, 9.67469215e-01 ]
      - [ -4.86174285e-01, -1.08939707e+00, -9.67736721e-01,
          2.01784506e-01, 8.59328210e-01, 1.71865642e-01, 1.71865642e-01,
          8.73631388e-02, 5.31038046e-01, 6.20356739e-01, 5.44319034e-01,
          1.48193285e-01, -5.65831482e-01, -1.44135997e-01,
          -1.44135997e-01, 6.12971485e-02, -2.34152365e+00,
          1.29042256e+00, 1.84390724e+00, -7.92806387e-01,
          3.38360339e-01, -4.41310704e-01, -3.95687997e-01,
          4.98637706e-01, 2.91307628e-01, 4.28175539e-01,
          -5.44377506e-01, -5.06723464e-01, 4.41427112e-01,
          6.09673798e-01, 1.50840700e+00, -1.50840867e+00 ]
      - [ -5.58582425e-01, -7.46001661e-01, 2.31517762e-01,
          8.26849103e-01, 1.17963815e+00, -7.16602623e-01,
          -1.60959959e+00, 3.67489457e-03, 1.22006190e+00,
          4.52010810e-01, -4.07912254e-01, -1.02529299e+00,
          -9.33420777e-01, 1.76394477e-01, 1.17963803e+00,
          7.27627277e-01, -2.46217355e-01, -1.14288902e+00,
          2.38868028e-01, 1.15023887e+00, 9.07696962e-01,
          -8.34198833e-01, -6.06356084e-01, 5.32858431e-01,
          -9.55470026e-01, -1.26416039e+00, -8.41548860e-01,
          -5.47558010e-01, 9.15046751e-01, 4.74060357e-01,
          -2.28210378e+00, 2.28210282e+00 ]
      - [ -1.61851823e-01, 4.56037484e-02, 8.77250284e-02,
          -1.56711057e-01, 2.99658060e-01, -6.34969950e-01,
          -7.18051672e-01, 2.06792265e-01, 1.57208562e-01,
          -1.35816291e-01, -2.31003687e-01, 2.73124993e-01,
          1.69148371e-02, 5.77094734e-01, 6.93674445e-01,
          -3.19392055e-01, -1.85234070e-01, -8.46571445e-01,
          6.35135844e-02, 9.68291938e-01, 3.11929673e-01,
          -1.48087740e-01, -1.67656049e-01, 3.81420390e-03,
          -1.34721756e+00, -9.93664205e-01, -4.51559961e-01,
          -5.80245554e-01, 6.15401983e-01, 4.16403890e-01,
          -1.71984172e+00, 1.71984172e+00 ]
      - [ -2.62127936e-01, 1.89523809e-02, 9.49145332e-02,
          3.38980466e-01, 1.65178254e-01, -7.76182532e-01,
          -3.52844954e-01, 1.16334558e-01, 1.20379433e-01,
          -4.06038851e-01, -5.46184517e-02, -1.03462189e-01,
          -3.43483269e-01, 4.81314123e-01, 6.64401710e-01,
          2.98302829e-01, 1.90719381e-01, -8.47514629e-01,
          -4.43739921e-01, 1.10053539e+00, -3.20053518e-01,
          -6.81954801e-01, 3.51852804e-01, 6.50155723e-01,
          -7.94625998e-01, -7.63386667e-01, -8.54179919e-01,
          1.97384536e-01, -1.47828609e-01, 8.04624081e-01,
          -1.58968496e+00, 1.58968472e+00 ]
      - [ 1.80730060e-01, 1.42745301e-01, -1.75522417e-01,
          -4.98885930e-01, 4.84451875e-02, 9.68267173e-02,
          -9.61999536e-01, 3.62607129e-02, 7.44548813e-03,
          -4.17033732e-01, 6.58895910e-01, 6.86369650e-03,
          -8.96116853e-01, 8.19139600e-01, 1.16327536e+00,
          -2.11069673e-01, -3.50933075e-01, -7.80466855e-01,
          2.56171465e-01, 8.75228226e-01, -6.59496129e-01,
          6.41677916e-01, 6.84649289e-01, -6.66831255e-01,
          7.25382924e-01, -2.77403569e+00, 4.68747139e-01,
          -1.60014713e+00, -4.86565381e-01, 1.61796558e+00,
          -6.23310864e-01, 6.23311043e-01 ]
      - [ -6.40993536e-01, -7.37778306e-01, 4.86609250e-01,
          4.87212278e-02, 1.88856348e-01, 4.26981986e-01, 3.06302398e-01,
          1.57288928e-02, -2.18615189e-01, -3.65107626e-01,
          6.74040616e-01, 4.47259605e-01, -3.27950180e-01,
          -1.22433282e-01, -4.90719557e-01, 3.09097469e-01,
          -8.43441248e-01, 9.37869668e-01, 5.37577331e-01,
          -6.32005513e-01, -9.98702466e-01, -7.98337340e-01,
          9.76232708e-01, 8.20807159e-01, 7.69126654e-01,
          -3.38034242e-01, -7.62933433e-01, 8.57361615e-01,
          -1.03410625e+00, 9.39678133e-01, 1.04221725e+00,
          -1.04221725e+00 ]
      - [ -3.18349689e-01, -5.16915917e-01, 1.88160628e-01,
          6.06963933e-02, 1.23660386e-01, 3.57283890e-01, 2.84901768e-01,
          -8.27877596e-02, -2.16725782e-01, -3.27895820e-01,
          9.25880373e-01, 4.34201300e-01, -3.18349689e-01,
          -2.72813678e-01, -4.65637594e-01, 1.44691110e-01,
          -5.86408615e-01, 6.83058321e-01, 8.15460205e-01,
          -9.12109971e-01, -7.29764819e-01, -7.60341644e-01,
          9.33305144e-01, 5.56801200e-01, 1.10950577e+00,
          -3.00647348e-01, -3.54321331e-01, 4.50970858e-01,
          -1.13578498e+00, 1.03913522e+00, 1.24017012e+00,
          -1.24017048e+00 ]
      - [ -4.49674636e-01, -9.01308879e-02, 3.95221412e-01,
          2.59221215e-02, -2.36198574e-01, 4.75201637e-01,
          -4.54573072e-02, -1.70200944e-01, -7.65944496e-02,
          -3.18455130e-01, 2.27280542e-01, 4.75711048e-01,
          -5.02136648e-01, -9.06896517e-02, 2.11882383e-01,
          1.68319091e-01, -1.18661992e-01, 2.33448148e-02,
          3.07942063e-01, -2.12624878e-01, -1.26460445e+00,
          -2.40740906e-02, 7.88927019e-01, 4.99751270e-01,
          4.21126634e-01, -8.40126991e-01, -3.00802410e-01,
          2.05485299e-01, -9.87875938e-01, 1.08319294e+00,
          3.38569731e-01, -3.38570058e-01 ]
      - [ -2.37096965e-01, -2.78673947e-01, 6.31954446e-02,
          1.34359434e-01, -4.09107581e-02, 9.88059640e-02,
          4.26680028e-01, 2.67918576e-02, -1.75892368e-01,
          -7.21105993e-01, 1.01791501e+00, 5.98812342e-01,
          -3.04838926e-01, -4.30647582e-01, -4.95763063e-01,
          3.18369448e-01, -3.18216175e-01, 5.11367261e-01,
          7.19729066e-01, -9.12880182e-01, -7.58738995e-01,
          -1.33162165e+00, 1.01202750e+00, 1.07833302e+00,
          1.19799364e+00, -4.64905530e-01, -4.57875788e-01,
          6.51026666e-01, -1.63248491e+00, 1.43933380e+00,
          8.22295010e-01, -8.22295964e-01 ]
      - [ -2.52088517e-01, -5.73357105e-01, 8.43799591e-01,
          7.74016678e-02, 1.11131743e-01, 9.50286746e-01,
          -2.73035765e-01, -1.36200368e-01, -2.37157241e-01,
          2.06380635e-01, 4.20507610e-01, 4.92459714e-01,
          -4.66363788e-01, -8.47735405e-01, -5.80267370e-01,
          2.64237702e-01, 9.57556814e-02, 6.52182519e-01, 8.82190824e-01,
          -1.63012910e+00, -8.44477832e-01, -2.64425099e-01,
          4.11003917e-01, 6.97898567e-01, 1.38294375e+00,
          -4.55617338e-01, 2.35972866e-01, 5.11965096e-01,
          -1.34487569e+00, 5.96937537e-01, 1.30413914e+00,
          -1.30413985e+00 ]
      - [ 0., 2.08220556e-02, 1.29726839e+00, -1.07536292e+00,
          -7.42438614e-01, 3.20992142e-01, -5.14515877e-01,
          6.42899394e-01, -1.50186196e-01, -1.60445392e+00,
          7.68383026e-01, 2.30986786e+00, 0., -6.36756346e-02,
          -3.77098098e-02, -1.17189014e+00, 2.42727503e-01,
          -2.93062776e-01, 1.32361054e+00, -1.27327538e+00,
          -8.92624736e-01, -1.32631540e+00, 1.51342559e+00,
          7.05514073e-01, -8.25148225e-02, -3.19433260e+00,
          -4.00624394e-01, 3.50289375e-01, -1.81831551e+00,
          1.86865056e+00, -1.02959490e+00, 1.02959430e+00 ]
      - [ -5.72203457e-01, -4.22018349e-01, 1.79545328e-01,
          -2.15399444e-01, 1.51648551e-01, 5.77599883e-01,
          8.68000463e-02, 1.00153878e-01, -8.27756077e-02,
          -3.01833656e-02, 6.05405092e-01, 5.41562736e-01,
          -3.04760516e-01, -4.30798978e-01, -2.44942591e-01,
          6.03667572e-02, -1.03007591e+00, 9.16202426e-01,
          1.03400898e+00, -9.20135319e-01, -8.08090985e-01,
          -3.05400878e-01, 6.26807809e-01, 4.86683965e-01,
          6.71168447e-01, -4.63543326e-01, -2.64973491e-01,
          1.51099771e-01, -8.48518372e-01, 9.62392032e-01,
          1.23962164e+00, -1.23962200e+00 ]
      - [ -2.56489426e-01, -5.81885934e-01, -2.20551714e-02,
          1.22220159e-01, -1.17173508e-01, 5.28922200e-01,
          1.06643587e-01, -2.18752950e-01, -3.57824445e-01,
          1.02085873e-01, 6.63942277e-01, 1.51976258e-01,
          -2.46989831e-01, -8.44836533e-02, -9.88377631e-03,
          2.19748333e-01, -7.38210440e-01, 2.99639285e-01,
          5.60180068e-01, -1.21608943e-01, -9.78477240e-01,
          -3.53616141e-02, 7.38646865e-01, 2.75191724e-01,
          1.15612352e+00, 8.39597583e-02, -4.26626861e-01,
          -1.19444253e-02, -5.87212026e-01, 1.02578318e+00,
          1.40159392e+00, -1.40159416e+00 ]
      - [ -3.38581294e-01, -2.46103391e-01, 6.54852241e-02,
          -1.56871527e-01, 1.03317074e-01, 4.30111229e-01,
          1.43370405e-01, 2.22816281e-02, -6.29381984e-02,
          8.72689411e-02, 4.55045193e-01, 2.43527636e-01,
          -1.92730889e-01, -3.52159023e-01, -2.52423078e-01,
          5.14000133e-02, -6.76070929e-01, 6.99080408e-01,
          7.22903609e-01, -7.45912850e-01, -4.90933210e-01,
          -8.08822662e-02, 4.11477715e-01, 1.60337761e-01,
          5.97975194e-01, -1.18963107e-01, -5.12563810e-02,
          7.42656961e-02, -5.20559132e-01, 4.97549802e-01,
          1.11579573e+00, -1.11579633e+00 ]
      - [ -6.09206855e-01, -4.48909342e-01, 6.07303120e-02,
          -2.45015398e-01, 1.07753463e-01, 4.74990994e-01,
          6.49186075e-02, -6.28245436e-03, -1.22793257e-01,
          -4.68327738e-02, 5.86932719e-01, 3.62668455e-01,
          -3.41155857e-01, -3.54101509e-02, 1.26029685e-01,
          7.15818256e-02, -1.24240136e+00, 6.41380727e-01,
          7.79975176e-01, -1.78954527e-01, -9.65402484e-01,
          -5.61612733e-02, 8.38611305e-01, 1.82952374e-01,
          5.24298787e-01, -5.68085432e-01, -4.75371689e-01,
          -1.25648931e-01, -5.46192050e-01, 1.14721262e+00,
          1.08000946e+00, -1.08000994e+00 ]
      - [ -4.00607318e-01, -3.52036268e-01, -7.72430375e-02,
          -1.52901232e-01, -1.93708166e-02, 1.92731470e-01,
          6.42438084e-02, 2.43447721e-01, -1.83862522e-01,
          -1.69150293e-01, 3.40974063e-01, 4.93475109e-01,
          -2.43847951e-01, -8.26380700e-02, 8.35986137e-02,
          2.63186723e-01, -9.82787848e-01, 4.81052220e-01,
          4.81436402e-01, 2.02993210e-02, -8.47688615e-01,
          -4.11093175e-01, 4.11573410e-01, 8.47208321e-01,
          3.96285087e-01, -5.01655698e-01, -5.79283059e-01,
          7.75471628e-02, -6.79498792e-01, 1.18123460e+00,
          4.28799003e-01, -4.28799003e-01 ]
      - [ -2.01470211e-01, -4.97070938e-01, 1.22493170e-01,
          1.42430320e-01, 4.27753702e-02, 7.18509197e-01, 2.59090453e-01,
          -1.20456249e-01, -2.55633861e-01, 9.05504897e-02,
          5.36914349e-01, 3.16000819e-01, -2.77021527e-01,
          -2.46097356e-01, -5.86325169e-01, -4.46888320e-02,
          -4.33617771e-01, 8.99918854e-01, 6.87831879e-01,
          -1.15413284e+00, -6.91350341e-01, 6.58913255e-02,
          3.32172900e-01, 2.93285996e-01, 1.00926459e+00, 2.15049699e-01,
          6.27433285e-02, 4.03557658e-01, -6.88202262e-01,
          2.21901163e-01, 1.60506451e+00, -1.60506511e+00 ]
      - [ -3.03473324e-01, -3.19426060e-01, 2.10125614e-02,
          -9.84467939e-02, 2.85289198e-01, 1.80735379e-01,
          1.31233037e-01, 2.11114004e-01, 1.42644599e-01,
          -1.33082747e-01, 4.11198139e-01, 4.27933812e-01,
          -3.35417897e-01, -3.08034033e-01, -2.16741487e-01,
          -9.65383276e-02, -7.00333595e-01, 8.08371663e-01,
          8.48693788e-01, -9.56731737e-01, -2.10957468e-01,
          -5.79807520e-01, 3.46702218e-01, 4.44062710e-01,
          1.91921875e-01, -4.35714483e-01, -1.56874850e-01,
          2.64912784e-01, -6.33890092e-01, 5.25852144e-01,
          5.90083718e-01, -5.90083957e-01 ]
      - [ -8.34034026e-01, -7.45924294e-01, 1.73058644e-01,
          -2.01565832e-01, 6.23722553e-01, 6.41238913e-02,
          -5.75304508e-01, 3.50062191e-01, -3.81966263e-01,
          1.99616682e-02, 8.63136768e-01, 3.98291677e-01,
          -2.60481596e-01, 2.75245681e-02, 2.47721136e-01,
          2.31673390e-01, -1.60846543e+00, 4.62604254e-01,
          8.99423957e-01, 2.46437460e-01, -8.52759361e-01,
          -6.34314120e-01, 7.08612025e-01, 7.78461456e-01,
          3.24900359e-01, -1.01739037e+00, -8.92111778e-01,
          -2.53749579e-01, -5.94961584e-01, 1.74082303e+00,
          3.71917725e-01, -3.71918052e-01 ]
      - [ -4.51668411e-01, -3.86807501e-01, -1.31996766e-01,
          -2.44349286e-01, 2.31646121e-01, 3.19671661e-01,
          1.06557213e-01, -9.95829329e-02, 1.15823060e-01,
          6.48609176e-02, 3.38203311e-01, 7.64681175e-02, 0.,
          9.26584471e-03, 8.33926052e-02, -3.14839371e-02,
          -1.21482182e+00, 5.58292091e-01, 5.95355451e-01,
          6.11745045e-02, -1.04199246e-01, 6.99088909e-03,
          3.96156371e-01, -2.98948050e-01, 1.74722657e-01,
          -7.29311705e-02, -2.87158161e-01, -3.69371831e-01,
          1.89949825e-01, 4.66580153e-01, 8.29293072e-01,
          -8.29293072e-01 ]
      - [ -3.43720496e-01, -2.54920274e-01, 1.02799147e-01,
          -7.88492486e-02, 1.30748287e-01, 1.93745717e-01,
          1.45967841e-01, 2.34266534e-01, -3.73029038e-02,
          -1.49983689e-01, 4.62618470e-01, 4.75099504e-01,
          -3.38945895e-01, -2.93111920e-01, -2.05908522e-01,
          -4.25025150e-02, -5.74690878e-01, 7.04728425e-01,
          7.50431359e-01, -8.80468845e-01, -5.89220941e-01,
          -5.04270196e-01, 5.05476892e-01, 5.88014305e-01,
          2.70141274e-01, -4.21811014e-01, -2.74146795e-01,
          4.04184222e-01, -8.19344401e-01, 6.89306915e-01,
          6.52348280e-01, -6.52348578e-01 ]
      - [ -5.79739213e-01, -4.23581421e-01, 3.40103179e-01,
          -4.41117324e-02, 3.42096806e-01, 2.21549466e-01,
          2.42810577e-01, 4.02546734e-01, 2.33559772e-01, 5.58183081e-02,
          2.52828062e-01, 6.60167396e-01, -6.91227555e-01,
          -5.63801706e-01, -4.02855247e-01, -4.61634994e-02,
          -7.07329154e-01, 1.20900369e+00, 1.20237350e+00,
          -1.70404804e+00, -6.95310175e-01, -7.10015476e-01,
          4.32886541e-01, 9.72438931e-01, -1.51525080e-01,
          -4.36710358e-01, -4.39674407e-01, 9.41348672e-01,
          -9.65651155e-01, 4.63976771e-01, 7.73006380e-01,
          -7.73006976e-01 ]
      - [ -3.49373966e-01, -3.39301080e-01, -3.57283689e-02,
          -2.10798427e-01, 8.15070570e-02, 2.70740032e-01,
          -3.64269279e-02, 1.94303215e-01, -1.46192178e-01,
          -8.79969969e-02, 3.45419168e-01, 4.80828613e-01,
          -1.96139783e-01, -3.36551875e-01, 1.09269515e-01,
          2.56441951e-01, -9.35201883e-01, 5.10123432e-01,
          5.92058659e-01, -1.66980222e-01, -6.10198855e-01,
          -4.93109882e-01, 3.82533371e-01, 7.20775366e-01,
          5.23227274e-01, -5.31362176e-01, -3.36427927e-01,
          -8.86505172e-02, -7.66880810e-01, 1.19195926e+00,
          4.91735250e-01, -4.91735309e-01 ]
      - [ -6.33374333e-01, -4.34872955e-01, 6.66403413e-01,
          -5.37820570e-02, 1.48579851e-01, 4.10831332e-01,
          2.66581774e-01, -4.60610129e-02, -2.47953162e-01,
          -1.57077163e-01, 7.70740151e-01, 5.45112848e-01,
          -5.33367813e-01, -1.92291856e-01, -6.30555511e-01,
          1.21086285e-01, -4.55625832e-01, 7.79932022e-01,
          9.10822749e-01, -1.23512912e+00, -1.26611543e+00,
          -3.73410612e-01, 1.07316983e+00, 5.66356122e-01,
          6.69283569e-01, -4.77645308e-01, -5.08836210e-01,
          8.33142042e-01, -1.13069010e+00, 8.06383789e-01,
          1.29107594e+00, -1.29107618e+00 ]
      - [ -5.11559367e-01, 5.86549118e-02, 6.23822927e-01,
          2.81408668e-01, -5.06047964e-01, 3.81890565e-01,
          -1.21216498e-01, -1.36681423e-01, -3.64912093e-01,
          -3.10539603e-01, 2.70028502e-01, 2.61581749e-01,
          -5.47790170e-01, 3.28253880e-02, 2.32128412e-01,
          3.56406003e-01, 4.52327073e-01, -3.82055312e-01,
          -1.43841401e-01, 7.35696331e-02, -1.93030965e+00,
          1.62831306e-01, 1.00476325e+00, 7.62714982e-01, 4.96765763e-01,
          -6.98137641e-01, -5.77061892e-01, 6.47333682e-01,
          -1.19041646e+00, 1.12014461e+00, 2.20162928e-01,
          -2.20163286e-01 ]
      - [ -3.32333386e-01, -2.95190275e-01, 4.71620150e-02,
          3.46995257e-02, 2.81017214e-01, 3.87803763e-01, 1.29267916e-01,
          -2.05264725e-02, 4.49627526e-02, 6.62223175e-02,
          3.77051771e-01, 2.09663272e-01, -3.36487591e-01,
          -3.62634391e-01, -2.72708893e-01, 4.20304090e-02,
          -5.45662165e-01, 7.77562499e-01, 6.97900176e-01,
          -9.29800510e-01, -3.42840999e-01, -2.03798607e-01,
          2.80772835e-01, 2.65866667e-01, 4.74552661e-01,
          -1.06297836e-01, 4.12973277e-02, 1.90602943e-01,
          -5.87936938e-01, 3.56036633e-01, 9.60345745e-01,
          -9.60346222e-01 ]
      - [ -1.33816636e+00, -7.27270901e-01, 1.30145693e+00,
          5.99161863e-01, 5.29193163e-01, 8.77351463e-01,
          -5.62556863e-01, -6.90715313e-01, 1.05294728e+00,
          -4.30537671e-01, 1.77164003e-01, 1.81533992e-01,
          -1.36452198e+00, -7.54248798e-01, 5.08849144e-01,
          6.40359938e-01, -1.64818496e-01, 1.53272644e-01,
          9.81107593e-01, -9.69561756e-01, -1.12054789e+00,
          -1.03470588e+00, 1.42491305e+00, 7.30340362e-01,
          3.56708914e-01, -1.75845468e+00, -6.58892632e-01,
          6.47346556e-01, -1.49636114e+00, 1.50790679e+00,
          6.14210181e-02, -6.14213310e-02 ]
      - [ -1.11566830e+00, 2.57789753e-02, 1.26347029e+00,
          -3.54672939e-01, 1.83786571e-01, 2.91255265e-01,
          -5.72676182e-01, 4.04278934e-02, 2.86517322e-01,
          -9.16497827e-01, 2.03806296e-01, 1.10807002e+00,
          -6.40915871e-01, 8.48427191e-02, 5.82122266e-01,
          -4.69646424e-01, -1.81091934e-01, -5.72065003e-02,
          6.81895554e-01, -4.43597257e-01, -1.28628039e+00,
          -5.14620841e-01, 1.47672224e+00, 3.24178547e-01,
          -1.09025311e+00, -2.48476291e+00, -6.14847481e-01,
          3.76549006e-01, -1.18605363e+00, 1.42435193e+00,
          -9.94112551e-01, 9.94111955e-01 ]
      - [ -6.39716208e-01, 4.53885691e-03, 6.65981829e-01,
          2.98037052e-01, -4.38994579e-02, 5.30991703e-03,
          3.85023165e-03, -4.96236943e-02, 1.17426842e-01,
          -7.59020627e-01, 1.90667406e-01, 2.34595343e-01,
          -6.87307596e-01, -4.87331394e-03, 3.03882807e-01,
          3.60150486e-01, 3.28841537e-01, -8.43630135e-02,
          -2.16331095e-01, -2.81476676e-02, -1.25349653e+00,
          -7.54045188e-01, 1.16438210e+00, 8.43159139e-01,
          -8.35884139e-02, -1.14444101e+00, -6.73766851e-01,
          9.18245494e-01, -1.33377481e+00, 1.08929586e+00,
          -5.59193194e-01, 5.59192717e-01 ]
      - [ -2.31158033e-01, 4.55977544e-02, 4.03067738e-01,
          -3.22274476e-01, -7.16776028e-02, 5.23069680e-01,
          -1.99653789e-01, -1.26428604e-01, -3.93313654e-02,
          -3.64919752e-01, 5.54604292e-01, 2.49371886e-01,
          -5.48187852e-01, -7.69259259e-02, 2.32471198e-01,
          -2.76251920e-02, -1.04767010e-01, 1.25309765e-01,
          3.99725080e-01, -4.20267820e-01, -8.90354872e-01,
          1.26821741e-01, 9.90489364e-01, -2.26956442e-01,
          8.18890810e-01, -1.43503594e+00, 2.65831828e-01,
          -2.45289117e-01, -1.02936494e+00, 1.00882208e+00,
          5.13100386e-01, -5.13100445e-01 ]
      - [ 4.24417973e+00, 7.59676218e-01, -5.53046179e+00,
          5.66770136e-01, -4.83632803e-01, 4.58255410e-01,
          2.10397199e-01, 2.84775011e-02, -3.32835823e-01,
          3.17534328e-01, 2.11033726e+00, 6.40534341e-01, 5.29267073e-01,
          -1.18914163e+00, -7.96075046e-01, -1.53328359e+00,
          4.01653238e-02, 2.13497937e-01, 2.73557186e+00,
          -2.98923492e+00, 3.95697665e+00, 3.46323550e-01,
          -4.00580215e+00, -2.97503322e-01, 5.27948761e+00,
          1.62396896e+00, 4.97847891e+00, -4.72481632e+00,
          -6.75175965e-01, 4.21512336e-01, 3.09652448e+00,
          -3.09652638e+00 ]
      - [ -2.41161481e-01, 6.34182990e-01, 2.59641469e-01,
          1.26275674e-01, -1.39049023e-01, 6.28328264e-01,
          -8.31052899e-01, -2.10156232e-01, -1.36436194e-01,
          -4.18448001e-01, -4.64279324e-01, 6.63528264e-01,
          -5.58999777e-01, -1.34571746e-01, 5.76981068e-01,
          2.45216951e-01, 7.78938651e-01, -5.51929891e-01,
          -3.55635166e-01, 1.28626421e-01, -1.07564640e+00,
          7.09491611e-01, -4.58709598e-01, 8.24864686e-01,
          1.68104306e-01, -1.68222487e+00, 8.82300913e-01,
          -6.55291915e-01, -1.24845564e+00, 1.02144694e+00,
          -1.08545196e+00, 1.08545196e+00 ]
      - [ 3.25790167e+00, 3.65617013e+00, -4.05408335e+00,
          2.76757598e-01, -8.04940879e-01, -2.01823026e-01,
          -1.99521795e-01, 6.00330114e-01, -5.89744151e-01,
          -1.06602359e+00, 6.52699709e-01, 5.57507038e-01,
          1.13461125e+00, -2.70875597e+00, 5.81139445e-01,
          -1.09222353e+00, 3.13674688e+00, -6.05955303e-01,
          -4.45560068e-01, -2.08522916e+00, 2.99782705e+00,
          -3.20432693e-01, -3.01976609e+00, 3.42369258e-01,
          2.61655450e+00, 1.45823941e-01, 5.90730906e+00,
          -3.37651753e+00, -3.22991204e+00, 6.99122965e-01,
          -8.14668536e-01, 8.14669430e-01 ]
      - [ 8.97219241e-01, 9.50799659e-02, 1.24198985e+00,
          -7.38293901e-02, -1.59971088e-01, 2.42838597e+00,
          -2.16850924e+00, 3.13673556e-01, -1.14953533e-01,
          1.92766798e+00, -2.19786787e+00, 1.85605481e-01,
          2.03934953e-01, -2.70214009e+00, 2.65627414e-01,
          -1.41913295e-01, 2.16046000e+00, 4.13579136e-01,
          -1.99547917e-01, -2.37449121e+00, 8.26228499e-01,
          1.74899375e+00, -2.85875940e+00, 2.83535719e-01,
          9.85823691e-01, -1.10735901e-01, 3.26071429e+00,
          -6.86675131e-01, -6.85490966e-01, -1.88854802e+00,
          -1.03228316e-02, 1.03264898e-02 ]
      - [ 6.61277413e-01, 8.02142560e-01, 5.22942937e-05,
          -3.11379850e-01, -2.33435720e-01, -2.39649236e-01,
          -7.38694191e-01, 4.47152853e-01, -3.46751630e-01,
          -1.28033400e-01, -4.46709305e-01, 4.80144888e-01,
          3.82956296e-01, 2.87373122e-02, 1.57350317e-01,
          -5.15160620e-01, 1.15209258e+00, -7.64626443e-01,
          -4.41349566e-01, 5.38833849e-02, 4.64046448e-01,
          4.63197231e-01, -1.02800083e+00, 1.00757308e-01,
          -5.40241659e-01, -7.95151114e-01, 9.90334988e-01,
          -6.02868795e-01, -6.30914196e-02, -3.24374855e-01,
          -1.55308616e+00, 1.55308652e+00 ]
      - [ -5.71575053e-02, 8.24588120e-01, -2.11901426e+00,
          -1.78164339e+00, -9.52256396e-02, 1.87313378e+00,
          -1.16876328e+00, 1.17183208e+00, 4.00169313e-01,
          1.97903430e+00, -1.39461815e+00, 1.19373322e+00,
          4.19540465e-01, -2.01206088e+00, 1.64463055e+00,
          -8.78178835e-01, -3.13322639e+00, 1.78097677e+00,
          2.17831850e+00, -8.26068282e-01, 6.67326450e-01,
          2.66469479e+00, -3.03776550e+00, -2.94257700e-01,
          -4.56820875e-01, -5.51831663e-01, 2.54533887e+00,
          -3.89758849e+00, 7.86683738e-01, 5.65566540e-01,
          1.28878677e+00, -1.28878486e+00 ]
      - [ 9.27403629e-01, -6.01599932e-01, -1.77279603e+00,
          2.31862798e-01, -5.96713722e-01, 9.71150935e-01,
          -3.93136472e-01, -5.55341244e-01, -6.58892035e-01,
          1.28782558e+00, -7.88365304e-02, -6.14042640e-01,
          3.41675311e-01, 1.33493096e-01, 1.16133356e+00, 2.16613933e-01,
          -1.21512926e+00, -5.74040830e-01, -6.39456809e-02,
          1.85311604e+00, 1.34729026e-02, 1.79086912e+00,
          -1.08343577e+00, -7.20907211e-01, 2.03633189e+00,
          1.46822727e+00, 7.00240552e-01, -2.48941088e+00,
          1.10410178e+00, 6.85068429e-01, 1.78700352e+00,
          -1.78700316e+00 ]
      - [ -1.66744232e-01, 1.62157446e-01, -7.80568063e-01,
          -7.13654578e-01, 6.28663674e-02, 1.07749689e+00,
          4.39794660e-02, 2.38784254e-01, 4.18209508e-02, 1.03351748e+00,
          8.79589319e-02, 1.74231529e-01, 1.74703691e-02,
          -1.11041415e+00, 1.10622551e-02, -1.79965034e-01,
          -1.49880922e+00, 1.42312694e+00, 1.33752882e+00,
          -1.26184630e+00, -4.45864350e-02, 1.16275775e+00,
          -6.37567461e-01, -4.80603874e-01, 8.18746507e-01,
          3.81312728e-01, 1.13577664e+00, -1.21145880e+00,
          -1.76053662e-02, 9.32876989e-02, 2.24295282e+00,
          -2.24295211e+00 ]
      - [ -4.14172351e-01, 1.41791403e-01, -1.31067669e+00,
          -1.16561091e+00, 1.14173852e-02, 9.68671143e-01,
          -7.00124800e-01, 1.02627575e-01, -1.21498495e-01,
          1.02252686e+00, -5.29509559e-02, 2.14690611e-01,
          -2.75267571e-01, 2.43255660e-01, 1.98848379e+00,
          -6.53162539e-01, -2.74866867e+00, 3.82591456e-01,
          1.06276762e+00, 1.30330956e+00, -7.99521029e-01,
          2.37624454e+00, -7.52686784e-02, -1.50145519e+00,
          -1.51614770e-01, -1.11847615e+00, 7.07707405e-01,
          -3.07378459e+00, 8.69016111e-01, 1.49706066e+00,
          1.23812222e+00, -1.23812342e+00 ]
      - [ -2.34306768e-01, -1.33412540e-01, -1.17499602e+00,
          -6.83125734e-01, -2.99702197e-01, 1.67256236e-01,
          -3.39813590e-01, 9.90949094e-01, -4.15609002e-01,
          1.09890908e-01, -2.57094860e-01, 1.05557621e+00,
          -2.20911697e-01, -9.12856087e-02, 1.09573829e+00,
          4.30847436e-01, -2.22584105e+00, 5.18689573e-01,
          4.92763102e-01, 1.21438861e+00, -1.17052972e+00,
          5.24487309e-02, -6.76166356e-01, 1.79424715e+00,
          1.06702149e-01, -1.13396013e+00, -5.00165820e-01,
          -1.20698631e+00, -6.17915571e-01, 2.32506704e+00,
          -3.19761485e-01, 3.19761425e-01 ]
      - [ 1.03873372e+00, 5.27701490e-02, -1.01408660e+00,
          3.39687854e-01, -3.51379395e-01, 1.23646367e+00,
          5.76679297e-02, -1.71107873e-01, -3.72945726e-01,
          1.15359569e+00, -7.41467416e-01, -1.45907760e-01,
          2.35253558e-01, -2.87391722e-01, -3.79265338e-01,
          -6.50620639e-01, 4.17105258e-01, 7.71644175e-01,
          -1.06725328e-01, -1.08202386e+00, 5.49661756e-01,
          2.15543747e+00, -2.07715106e+00, -6.27948999e-01,
          8.83109093e-01, 1.78620505e+00, 1.97658825e+00,
          -7.87838519e-01, 7.28511512e-01, -1.91726124e+00,
          1.70625973e+00, -1.70625985e+00 ]
      - [ -9.78624970e-02, -2.19761431e-01, -7.93544650e-01,
          -4.23727423e-01, 7.64357626e-01, 9.51155126e-02,
          3.63979787e-02, 9.09949541e-01, 7.82556534e-01, 5.87175526e-02,
          5.28800823e-02, 9.09949541e-01, -5.81337631e-01,
          -8.67370725e-01, 6.07777499e-02, -6.87097669e-01,
          -1.53489578e+00, 1.80582070e+00, 1.80410373e+00,
          -2.07502818e+00, 8.67713809e-01, -9.33299303e-01,
          -6.43488824e-01, 7.09073782e-01, -6.36964858e-01,
          -9.09949660e-01, 5.41849315e-01, -2.70924479e-01,
          -6.07434392e-01, 3.36509734e-01, 2.43110999e-01,
          -2.43110642e-01 ]
      - [ -2.30493873e-01, -7.00835735e-02, -8.28543782e-01,
          -6.51358664e-01, 9.92179871e-01, -5.16917408e-01,
          -1.76418900e+00, 9.17338014e-01, -5.49015582e-01,
          9.44839180e-01, 3.51628028e-02, -1.89282343e-01,
          2.52107650e-01, 3.37595224e-01, 1.53216290e+00,
          -2.11501032e-01, -1.78047991e+00, -3.71588409e-01,
          2.41703928e-01, 1.91036499e+00, 4.64777857e-01, 6.95432901e-01,
          -1.02540720e+00, -1.34803787e-01, -9.23749268e-01,
          -1.21860111e+00, 1.74684763e-01, -2.32675385e+00,
          9.85526264e-01, 1.16654229e+00, -1.30110466e+00,
          1.30110419e+00 ]
      - [ -3.32515240e-01, -2.37546235e-01, -4.85455126e-01,
          -3.99471760e-01, 2.88387209e-01, 3.13377231e-01,
          9.99948825e-04, -1.37032822e-01, 2.53899902e-01,
          3.11377347e-01, 8.34674090e-02, -1.13540560e-01,
          2.03417704e-01, 8.24674666e-02, 3.82351935e-01,
          -2.14184314e-01, -1.45498812e+00, 4.65731591e-01,
          5.35204053e-01, 4.54052836e-01, 4.13189530e-01, 4.69675720e-01,
          -1.86358504e-02, -8.64229441e-01, -1.49854943e-01,
          1.16323233e-01, 3.17028910e-02, -1.02095985e+00,
          8.51162374e-01, 1.38094500e-01, 7.09221900e-01,
          -7.09221780e-01 ]
      - [ -1.18509129e-01, 2.78392822e-01, -1.08122575e+00,
          -5.99529266e-01, 2.54091322e-01, 1.69058979e-01,
          3.22447456e-02, 1.66774976e+00, 3.77715498e-01, 1.11159928e-01,
          1.01951711e-01, 1.72394311e+00, -7.66308725e-01,
          -1.47698689e+00, 2.27654576e-01, -9.01402652e-01,
          -1.52087080e+00, 2.12314510e+00, 2.31477022e+00,
          -2.91704321e+00, -2.53010660e-01, -9.18375492e-01,
          -7.19374895e-01, 1.89076066e+00, -7.48901129e-01,
          -1.22243321e+00, 5.83034337e-01, 1.92395318e-02,
          -1.75442052e+00, 1.15214682e+00, 4.14415240e-01,
          -4.14415449e-01 ]
      - [ 1.86669335e-01, 8.47270727e-01, -4.18406695e-01,
          -2.80064136e-01, 3.94674867e-01, -5.93163550e-01,
          -2.87376910e-01, 1.29750228e+00, 1.35023606e+00,
          1.24650991e+00, -1.49363971e+00, 6.64042771e-01,
          -1.03491485e+00, -1.29630375e+00, 2.86179841e-01,
          -8.69216621e-01, 3.35469127e-01, 8.11636984e-01,
          1.76714909e+00, -2.91425586e+00, 8.96665215e-01,
          2.04313055e-01, -1.91324353e+00, 8.12264085e-01,
          -2.76935101e+00, -3.55845869e-01, 8.35450947e-01,
          3.11654836e-01, 2.65527546e-01, -1.41263413e+00,
          -1.12767005e+00, 1.12766957e+00 ]
      - [ 6.37887642e-02, 8.17331485e-03, -7.78519094e-01,
          -7.50014603e-01, -2.24058598e-01, 5.40508747e-01,
          -7.09100246e-01, 6.84830546e-01, -3.85025084e-01,
          4.07400072e-01, -1.39338031e-01, 1.06576812e+00,
          -9.50354338e-02, -1.37369764e+00, 1.25010836e+00,
          4.34211195e-01, -1.45657134e+00, 2.92180508e-01,
          9.48804796e-01, 2.15586647e-01, -6.40330613e-01,
          -4.17616040e-01, -3.76848966e-01, 1.43479538e+00,
          8.99170518e-01, -1.14675021e+00, 3.88411790e-01,
          -1.55280340e+00, -1.44635844e+00, 2.61074972e+00,
          9.94703323e-02, -9.94695127e-02 ]
      - [ 1.54447269e+00, 4.15299177e+00, -3.67308140e-01,
          -1.17013049e+00, 2.04798833e-01, -5.11291981e-01,
          -1.03210306e+00, 4.30580139e-01, -8.67078006e-02,
          3.37984657e+00, -2.66358376e+00, 9.72957850e-01,
          -8.35506856e-01, -5.06713867e-01, -1.21542525e+00,
          -2.29687858e+00, 4.16002941e+00, -9.08018112e-01,
          1.60251105e+00, -4.85452700e+00, 8.27056170e-01,
          6.51483345e+00, -5.27842045e+00, -2.06347203e+00,
          -3.92728353e+00, 3.42105955e-01, 5.39097309e+00,
          -2.13896203e+00, 1.95091569e+00, -5.20293045e+00,
          -8.27134252e-01, 8.27142179e-01 ]
      - [ 8.39476287e-02, 8.98527861e-01, 2.69558340e-01, 5.09165764e-01,
          -5.23727417e-01, -1.21803805e-02, -6.66312695e-01,
          2.68676374e-02, -4.15986180e-01, -1.31387338e-02,
          -6.04333103e-01, -2.58154660e-01, -2.67639309e-01,
          1.19803712e-01, 5.99018574e-01, 2.54582882e-01, 1.76119959e+00,
          -1.17535269e+00, -1.29161251e+00, 7.05765843e-01,
          -1.12340522e+00, 9.93012667e-01, -4.02068853e-01,
          5.32461762e-01, -2.77983010e-01, -4.37924832e-01,
          4.46567982e-01, 1.39279127e-01, -5.76960444e-01,
          -8.88628699e-03, -1.29596496e+00, 1.29596496e+00 ]
      - [ -2.22652197e-01, -1.44547567e-01, -6.86674416e-01,
          7.56057501e-02, 7.57331192e-01, 8.83553028e-01, 3.60633880e-02,
          4.18943502e-02, 4.15855944e-01, 8.00597489e-01,
          -5.29191084e-02, 1.04417279e-01, -5.98916948e-01,
          -1.08219576e+00, -1.62579298e-01, -1.64833203e-01,
          -9.78268266e-01, 1.71884203e+00, 1.26795161e+00,
          -2.00852513e+00, 3.51617873e-01, 4.57407087e-01,
          -8.66109431e-01, 5.70835732e-02, 4.43148524e-01,
          3.13349724e-01, 1.27368474e+00, -5.33110976e-01,
          -4.64659452e-01, -2.75914162e-01, 1.66729474e+00,
          -1.66729522e+00 ]
      - [ -2.46194869e-01, 5.83646834e-01, 4.01132822e-01,
          7.20674455e-01, 6.36808991e-01, 2.46479154e-01,
          -1.28953815e+00, -6.42210424e-01, 7.43701935e-01,
          6.22593872e-02, -1.00382698e+00, -4.63960826e-01,
          -6.44769073e-01, -4.55716431e-01, 9.44979012e-01,
          4.06534284e-01, 1.45925939e+00, -1.04846072e+00,
          -6.61826670e-01, 2.51027763e-01, 4.89546806e-01,
          4.36668873e-01, -9.47253585e-01, 2.10375171e-02,
          -5.97008705e-01, -1.15137351e+00, 1.22073984e+00,
          -8.09941471e-01, -2.94524342e-01, -1.16274737e-01,
          -1.98462677e+00, 1.98462713e+00 ]
      - [ 3.20242532e-02, 6.52871549e-01, 2.95771033e-01,
          -8.24775025e-02, 1.11178488e-01, -2.27492943e-01,
          -7.06950128e-01, 7.88521543e-02, 2.90030893e-02,
          -1.73112184e-01, -4.90333378e-01, 1.59516960e-01,
          2.17523053e-02, 1.13897525e-01, 5.14804721e-01,
          -3.29305857e-01, 8.98189485e-01, -7.44412541e-01,
          -4.74925667e-01, 3.21148753e-01, 1.93958133e-01,
          3.66163969e-01, -3.86707842e-01, -1.73414245e-01,
          -1.01510799e+00, -9.40787494e-01, 5.68581343e-01,
          -4.14804488e-01, -8.45923927e-03, -1.45317584e-01,
          -1.59788871e+00, 1.59788907e+00 ]
      - [ -7.15567023e-02, 5.90654969e-01, 2.02187762e-01,
